9600 768
<unk> 0.06913464 0.0155393155 -0.17459744 0.27212468 -0.17655616 0.40150726 0.14422798 0.20830783 0.23903173 0.122463144 0.01977922 -0.28969505 0.09295704 0.22716184 0.0647613 -0.0015475863 0.17366284 0.11309393 -0.061288673 -0.12597568 -0.393698 -0.1977969 -0.024611814 0.21180053 0.13222997 0.018127786 0.272801 0.013574576 0.33960167 -0.04871318 0.22924186 -0.10021472 0.17109233 -0.18131721 -0.12731144 0.14875582 0.011888631 -0.1521073 0.10570711 0.11685767 0.025836976 0.047101296 -0.057479102 0.23449756 -0.11947648 -0.0066514774 0.052910652 -0.14494513 0.0692274 -0.041505974 -0.09529275 0.22384289 0.045332532 0.17512868 0.09961191 -0.13309734 0.020393247 -0.06507371 0.30707762 -0.21119907 0.21306977 0.085422516 -0.13402648 -0.037388902 0.36926225 0.1357026 0.051414717 -0.013913785 0.061049398 0.09867478 -0.13557893 0.13746546 0.071377955 -0.056847952 -0.20114712 -0.17437051 -0.0216256 -0.0017293405 0.21335283 -0.09214745 -0.08455822 -0.10615239 -0.053035144 -0.20327102 -0.04486678 -0.35997367 0.03207246 -0.06570704 -0.19692394 0.051530857 -0.054830723 -0.10018381 0.034716167 0.112223424 -0.2901826 0.09558136 -0.11121062 -0.11427831 -0.14087482 0.21788467 -0.12903845 0.16919619 -0.17318545 0.13034984 -0.20706889 0.060765695 -0.024962742 -0.08967264 -0.10451642 0.04864654 0.0629686 0.033214476 -6.31555e-05 -0.042506546 -0.08714945 -0.04471241 -0.08290287 -0.26567733 -0.04153787 -0.063124895 0.11494087 0.09865503 -0.20349711 0.17881039 -0.2674191 -0.25913623 -0.14194438 0.07275727 0.20624262 -0.086426914 -0.0034767487 0.22844937 -0.04743408 -0.161169 -0.2893889 -0.1492127 -0.26087612 -0.097920455 -0.04833424 0.05090032 0.17520432 0.057389934 0.01730452 -0.08549453 -0.11224025 -0.21364088 0.020129189 0.105065495 -0.09537243 -0.19763874 0.10822762 -0.008627058 0.0024725357 -0.015157009 0.15541196 0.06494735 0.22543699 -0.15254842 0.033972308 0.06250703 -0.1354591 0.109815136 -0.063843146 -0.0765143 0.044346143 0.020974584 -0.14949709 0.1724556 0.10660741 0.056312375 0.052917566 -0.0041178376 0.055489127 0.0145094 0.12962641 -0.08258742 0.019426838 -0.14536087 -0.22542174 -0.1284409 -0.08409905 -0.15937015 -0.19809051 -0.073433824 0.25427043 0.0017107511 0.23333238 -0.076557636 -0.050738476 -0.3696553 0.012819693 0.032522652 -0.10653622 -0.11605017 0.31028548 0.11871466 -0.15713465 0.03193303 -0.12005245 0.015338063 0.07576922 0.019551642 -0.0020591617 -0.07485294 0.13499814 -0.087625995 0.037740678 -0.124903776 0.20644656 0.057137728 -0.1109575 -0.14249077 0.13825567 0.1078073 0.106404476 0.13818458 -0.062425066 -0.2097538 -0.103405304 0.18965113 -0.014500739 -0.2694704 -0.12291876 -0.2298609 0.028362116 0.0640526 0.10626135 -0.062088124 0.22781642 0.048955083 -0.09069762 0.28282416 -0.13858984 0.06376741 -0.09341624 0.115062855 0.04294622 -0.31595108 -0.0021074833 0.06446521 0.21014613 0.07819868 -0.029499488 0.060753725 0.12539859 -0.2035256 -0.07400004 0.075408354 0.16976084 0.13619705 0.03657388 -0.027560778 0.13272522 -0.20167865 -0.041125473 -0.15989016 0.13545075 0.017590899 0.20303342 -0.1383336 -0.082515426 0.08046755 0.22269762 -0.18212602 -0.09939369 -0.11878984 0.13653263 0.12492837 0.19164345 -0.1757603 0.2847864 0.20669156 -0.35450554 -0.050035182 -0.31401014 0.05769301 -0.24953859 -0.13549219 -0.007791556 0.013846729 0.099446185 0.19633177 0.048102036 0.013230374 0.12970503 0.018396342 -0.10398636 -0.32803103 -0.18487573 0.017075289 -0.15238294 0.037064087 -0.15961194 0.25268927 0.019349756 -0.052058507 0.00925502 0.13330328 0.03503012 0.072503336 0.08165538 0.068638526 0.009834388 0.01726141 0.20813368 -0.09177049 0.014588659 0.003674708 -0.12701206 0.28218094 0.18080844 0.1598599 -0.17599803 -0.16640806 -0.13724269 0.013015532 -0.078347646 0.065204725 -0.13183522 -0.06872221 -0.28211266 -0.005610247 0.084728315 -0.16265874 -0.052285872 -0.38354364 0.056654744 -0.22865039 0.18497203 -0.35693106 -0.23070566 0.1656793 -0.116690546 0.13254334 0.20662117 -0.13505617 0.048615444 -0.11213521 -0.11011277 0.014900475 -0.2594903 0.2118044 -0.11356701 0.19320908 -0.0010949278 0.14398894 -0.092401095 0.03831524 0.053655285 -0.070755154 0.043028485 0.043000456 -0.19640957 -0.081277 -0.011258955 -0.2445398 0.12447152 0.11939689 -0.015218529 0.023151787 0.04676012 -0.13888296 -0.3610725 0.0028165104 0.0868545 0.01596392 0.037270032 -0.074423224 -0.09516868 0.21260384 -0.23476893 -0.095474266 -0.0350047 -0.052490395 0.19129795 -0.015241131 -0.12904392 -0.06423197 0.07504867 -0.2952247 0.19026072 0.07949225 0.029144501 -0.077777535 0.022626044 0.0069801235 0.19858922 -0.13032 0.41956183 -0.058648627 0.24353313 -0.13678896 0.0104725445 -0.13277571 0.24659438 0.05737689 0.017918186 0.027457504 0.19313192 -0.15470654 -0.3392108 0.27213147 -0.07506907 0.04434568 0.07706025 0.035660822 0.15712917 0.096191905 0.23240359 0.1688469 0.09957767 0.20639113 -0.055182938 0.021489952 -0.105294324 -0.015070029 0.02729387 -0.055615734 -0.1244856 0.0031143795 0.145903 0.065591626 -0.0025703325 0.014700685 -0.15006138 0.03334585 0.15800211 -0.021068556 -0.19809663 0.00859656 -0.073981285 0.074168086 0.11719694 0.15491639 -0.27175725 -0.09542933 0.08060219 0.23714887 -0.30610874 0.04518712 -0.03908551 0.070662536 -0.031109901 -0.023001986 0.04487599 0.25590986 0.3177971 0.24851748 0.21065614 0.132175 0.21670118 0.31199622 0.19480695 0.105413236 0.08716416 0.025457155 -0.24055555 -0.1404405 0.11706696 -0.041524716 0.09370573 0.18539187 -0.28184095 -0.026008891 0.015589521 -0.12912151 -0.04153629 -0.13397485 -0.015214271 0.22558814 -0.16951533 -0.09174745 0.1990943 0.00071472913 -0.058085985 0.01777289 0.12992951 -0.3306814 -0.03286013 0.05401832 -0.10787024 0.05162014 0.24336472 -0.23958413 -0.10246632 1.8354933e-05 0.30582112 0.05221481 0.16554031 -0.012676773 0.11008454 -0.15819018 0.03951597 -0.09044241 3.1855743e-05 -0.06684957 -0.20134777 0.12440283 -0.10287567 -0.0781969 0.28026462 0.06984037 -0.27005288 0.013319724 -0.1269141 -0.039018944 -0.08639155 0.031087713 0.19930153 0.009892671 0.032836165 -0.015229009 -0.041845575 -0.058360327 -0.3245763 -0.21167831 -0.06692439 0.09694801 -0.042071514 0.17797028 -0.0024765884 0.13344912 0.080893695 0.0011986485 -0.20359717 -0.28635737 0.060448345 0.09251951 0.196621 -0.2071335 0.08980985 0.055503707 -0.047405254 -0.007278691 -0.31590217 -0.1631803 0.0074081123 -0.02448822 -0.068740495 -0.08548851 -0.049260855 0.0415135 0.27770722 0.14442533 -0.19739568 -0.0036243505 0.08606938 0.07382533 -0.1837151 -0.032671656 -0.0010872327 0.28986073 -0.09621152 0.14002237 -0.026268238 -0.15584174 0.12021641 0.07460718 0.15720338 -0.090781145 0.0074818297 0.069437094 -0.25064695 -0.08417822 -0.15887727 -0.31626678 -0.3358111 0.08629795 0.05477152 -0.02697577 0.0025248933 -0.03901069 0.3481458 -0.22934727 -0.31130922 -0.29147917 0.12550679 0.2542263 -0.16628198 0.19963947 -0.13765332 -0.049121283 0.10730627 -0.087857574 0.042199824 -0.32503897 -0.02159478 0.022008378 0.13838613 0.27622288 0.21059477 0.1316169 0.23311307 0.09095146 0.12940545 0.19587687 -0.3731629 0.016635144 -0.20979877 0.3769883 -0.08240909 -0.030193841 0.11558665 -0.020597985 0.16425604 0.2852945 0.1580287 -0.1673429 0.0028111914 -0.18787019 0.04054266 0.18639004 0.02167198 0.0054425094 -0.010140433 -0.0053341202 0.06428592 0.07843844 0.03995286 -0.22231555 0.15555075 0.13572446 -0.043886747 0.3455882 -0.006508297 0.13562357 0.07880953 -0.11190353 0.018767785 -0.06542676 0.47511557 -0.07962681 0.16629156 0.21582405 0.07960454 0.009013982 0.2508593 -0.14814654 -0.007942683 0.22468145 -0.25687945 0.070964605 -0.17382216 0.07284224 0.09552011 -0.27560818 -0.13921522 0.029112399 -0.040063873 0.19534673 0.12380482 -0.16516456 -0.23028052 0.036446746 -0.02806403 -0.07307667 0.009384451 -0.19621268 0.27260354 0.048573017 -0.111500904 0.0665277 -0.051194426 0.07667322 -0.0021096496 -0.15002659 0.2507869 0.03594057 -0.13868788 0.051769212 0.09864452 0.05914832 0.064751066 0.08075808 0.07897957 0.22069578 0.031338587 -0.09941309 0.17466468 0.111474685 0.038188733 0.10183918 -0.094787806 -0.21119311 0.067721285 0.065679714 -0.15676929 -0.27385578 0.04312278 0.0060721464 0.2553692 0.025835682 -0.27882975 0.036975414 0.052038807 0.15265237 -0.19122452 0.039868627 -0.2326956 -0.38280532 -0.16652326 -0.0006109284 0.0066491184 -0.37384003 -0.19617279 -0.3210638 0.01629486 0.04574372 0.08273192 0.056768324 -0.19544035 0.004352989 0.08515683 -0.21213172 0.06411929 0.1531192 0.17118502 0.15138896 -0.13312377 0.032455042 -0.24042827 -0.20558 -0.19776034 0.05450269 0.26323822 0.08477871 0.31369728 -0.21753669 0.08194337 0.1052822 -0.15993236 0.015622244 -0.06379321 -0.041893892 -0.057330023 -0.028615195 -0.032474898 0.0069498946 -0.017741337 0.18628357 0.04250579 -0.15436552 -0.037873432 0.038708422 0.059549887 0.1868673 0.059024993 -0.0675793 -0.12773907 -0.19652683 -0.32294166 -0.12664771 0.15057053 -0.08438858 -0.085302785 -0.10065484 0.10770501 0.022376548 0.2238973 -0.12710904 -0.14824206 0.057212837 0.09866886 0.072668254 0.13974153 0.08032286 0.013952488 0.2295144
<s> 1.2610778 -1.5150267 0.38937944 -1.0812418 -2.3788905 0.94438046 -0.9829819 -0.82414496 -0.98263055 -1.0100998 -0.60547125 0.16496453 -0.44247875 0.67257154 -1.6119863 -0.5329979 -0.8403499 -1.1251886 0.13075574 -0.8502345 1.2491553 -0.43981686 0.82801795 -0.8143062 -0.84393185 1.110432 0.4974483 1.8968678 0.37030697 -1.3934064 1.8515204 1.19674 -1.9730129 -2.2890477 2.6775181 -0.156295 0.72337645 0.8245483 -1.4696492 1.1160207 0.4111055 2.0328712 -1.2317452 -0.5420577 0.6851199 -0.8229965 -0.5617689 -0.2991029 -0.5416198 0.0065397928 0.014013342 -0.8411665 1.6292092 0.6513939 0.29638156 1.1278124 -0.76307386 -1.1010169 0.056716844 1.5971565 -1.4439735 0.86638546 -1.5518807 0.33287352 -1.4374267 2.501379 0.96829927 -0.5028242 1.4679639 1.4915498 -0.727885 -1.1680766 -2.1801188 0.074465476 -0.32558215 0.03995504 -1.1355224 0.97074044 -0.6581811 1.0324991 -0.9625008 -1.1318494 -2.2188797 1.6311582 0.3269126 0.6585848 -0.49322742 0.20904064 -0.7503067 1.0490527 0.61852294 -0.09341563 0.53245187 -0.285916 0.7360331 0.21066433 -0.70741224 0.45023584 1.060469 -0.59689677 2.2802804 -0.9362126 -1.2974 0.3457949 -2.8223023 1.9243379 1.9783607 -0.7126441 1.8035605 -0.588274 1.6378978 -0.74197686 -0.75731 0.72044957 -0.3539961 1.4923586 0.69910914 0.4250051 0.7129433 2.5914552 -1.0337361 1.3603768 0.92468566 -0.9806514 0.060461316 -2.8461766 0.35040706 -1.6047933 -1.812609 -2.2619398 -0.29654965 -0.19498095 0.11979016 0.052157395 1.6228479 1.0678189 -2.0449202 0.6964916 -1.6684669 0.2471305 0.5246965 -0.44200844 0.34294498 -0.512997 0.92645085 -1.9574134 -0.73657537 0.96443933 0.18214889 -0.34418765 0.75404936 0.03130517 -0.81013685 -2.2816691 -0.6864335 0.27083784 1.4598684 -0.1235582 0.38671517 0.5061203 -2.310779 0.3469744 -0.0007797499 1.2053816 -0.096505664 1.5449429 0.8508725 -2.6620662 -0.53503144 -0.25888553 0.698686 -0.6430972 0.20777169 -0.027475746 0.37233266 -0.35783777 0.7648909 -0.8535322 0.67201006 0.9399518 -2.1563668 -0.79781455 -1.590029 0.7919691 -1.1631113 2.5595236 -0.6510227 -0.40191728 1.3095391 -0.8594207 -0.39855486 2.3368077 0.34881878 0.6397682 1.1578058 -1.8519802 2.562169 0.63871676 -1.4415625 -0.9373365 -0.47661963 1.81631 1.7678938 0.53671414 -0.61477864 1.2143751 -1.5222365 -0.02143661 -2.274324 -1.5847691 -0.27432713 0.7518126 -1.5798672 -1.0108391 -0.042217843 -0.7463126 -1.0221639 -1.9450116 1.6052247 -2.468539 -0.2806736 0.8604842 0.51953226 -0.8449424 1.2738283 -0.52392155 -0.5516643 -1.6839051 0.07701224 -1.3751024 -1.9210349 -0.36661834 -0.6550317 1.1806616 0.30395716 -1.3447034 1.0698931 -0.9533651 0.6267708 0.6979929 -1.4664925 -0.42777476 0.1853608 0.26066735 -0.98945343 0.19286433 -1.6144671 1.4546491 1.7213755 -0.6876688 -0.22778144 0.13843425 0.6016483 1.0994087 -1.7086673 -0.14642712 0.32770288 0.3015548 0.64306504 -0.3724683 0.89777607 -0.2113425 0.49151507 -0.45746136 -1.9715528 -1.9283882 0.4298853 1.3342916 -0.9644154 0.3138837 -0.8362509 0.96108073 0.49018773 -0.1603334 -0.4802084 0.047689594 -0.08096809 -2.2887833 -0.6252313 -0.41374546 0.112945765 -1.3303272 0.63055885 0.82052463 -0.12989551 -1.531996 -1.6952219 2.2999666 -1.3505547 -1.7553617 -0.055953387 0.67500776 0.24023354 0.50843143 -0.91397005 -0.34442753 -0.6772276 -0.7175246 -1.8967998 -1.285797 -1.7181687 -1.123698 2.6009977 2.3405967 1.2606368 -1.4922917 -2.5720701 -0.5462649 0.4387513 -0.62521917 -0.3129267 1.7114837 0.17242886 0.7171261 -0.009433861 0.7522459 -0.8813282 1.1107533 -1.2567986 0.017673103 -1.1138285 -0.76310056 -1.7401776 -0.9463223 1.7130243 0.22844484 1.9693079 -1.0278571 -1.516221 0.26200354 0.70427537 -0.44404626 1.2398696 1.989694 -0.5747322 0.9710264 1.7322555 -0.6739281 0.37524432 0.0033620314 -0.6808863 0.90387285 -0.34329432 -0.5458008 -0.13811436 0.5515257 -0.3106735 1.7169794 0.65623283 0.9039065 0.0786325 0.37417173 1.6273973 -0.09939926 0.093675666 -0.5583323 0.12397429 -0.90880066 -0.69444275 0.4138621 -2.636808 1.3625298 -2.2904046 0.09527069 -2.0867941 -0.56735724 0.75006324 0.039775252 1.4255455 -0.8697732 0.30939725 1.8200954 0.8484173 -0.8027004 -0.02112285 -0.5525854 -1.3134711 -2.3309908 0.88376695 1.0757087 0.027837692 1.5422989 -1.4961151 -1.4841068 0.61878896 0.08446077 2.1610298 -1.7016199 0.4611513 1.0563718 -0.08858263 -1.1610157 -0.9599109 -1.8094015 -1.8148528 1.5838368 -0.94845253 2.377639 -2.3619869 2.4813194 0.1643809 -0.43919846 -0.7682819 1.1673113 1.4918147 -0.066392794 -0.20711939 0.5981869 0.67915267 0.054551795 -1.994241 -1.1928943 0.28544262 -2.0190513 1.2402401 -1.7423847 -0.6681647 0.8265843 0.056553792 -0.07053036 0.20606105 0.035036806 -0.1710758 -1.4255536 -0.9600192 -1.0151235 2.0991116 -1.5005125 1.1021812 0.5211844 -0.29144895 -0.41225 1.7044196 -0.97703445 0.9178963 1.3697468 0.9619779 0.06279882 -0.22717904 0.47780162 -0.7230613 0.7688823 -0.76165146 1.7382915 0.5896397 1.2941531 0.35574746 -1.0240854 0.652435 -0.5668345 -1.1582576 3.350303 -0.11184088 -0.97897893 -0.68436074 -1.2756433 -0.39441574 -0.9766096 -1.364101 -0.30861917 -0.36388886 0.9660837 2.04884 -0.26945862 0.41816983 0.020182367 -0.76105225 -0.36353147 -0.12681931 -0.33307815 -1.3167458 -1.1665741 2.3430803 -1.3717283 0.045885116 0.5767012 0.64579743 -1.04625 0.95373064 -0.024992125 -2.0045397 -1.1099477 0.55859894 1.2563329 -1.6723748 0.32307568 -1.9439646 1.1453862 1.7200893 0.16815853 0.61887735 0.113239095 0.6345273 1.6068239 1.7608646 -0.48264164 0.39395544 1.2620021 0.29989666 1.6469486 0.3356081 1.4320045 0.019951997 2.9988372 1.1371288 -0.17307046 0.9511185 -0.78670603 -1.960134 -1.0446322 0.76224726 -1.812406 -0.3160824 -0.90453863 -0.46933284 -0.784973 0.08747234 1.2658546 -0.54348075 1.0694503 -0.38358003 0.49738082 -1.6841537 -0.10807724 1.3737015 -0.28794998 -0.14865817 -2.0002916 -0.75789756 0.106055774 0.889635 -1.2433633 0.7369684 -0.28360686 0.15047812 1.0439564 -1.9447114 1.0415977 0.6114486 2.5216424 1.177257 0.6437033 1.6718751 0.3099288 -0.71945643 0.7960672 -1.3464676 2.8254619 2.4533365 -2.2086897 0.38428175 -0.60388285 2.3585541 0.06039788 0.6596984 -0.5532396 0.036342535 -0.22518592 0.73707324 1.2523029 -1.5076547 1.773542 -0.81298745 2.8211904 2.2263076 0.5604423 -1.87068 0.3227872 -0.16273013 -0.6169577 3.342099 -0.8654213 -0.68813384 -0.8261929 0.43315873 0.56903297 0.28029457 -1.0185312 -1.9443346 2.5458539 0.70014656 0.6011172 0.51123005 -0.2941073 1.7160215 -0.2962748 3.2129343 0.11437062 -0.73733836 -0.42169416 -1.132332 1.2724531 -0.77972215 0.5767669 -0.2361383 0.3424546 1.2156289 0.26583067 0.4789261 -1.7040998 -0.9100085 -1.8526802 -0.3901344 -0.5576492 0.8442503 0.6098582 -0.39875007 -0.49194926 0.10979547 0.52645844 0.6670117 1.4013163 -0.12208074 0.6716012 -1.718675 -0.55160403 -0.9012812 0.6853103 -3.2187247 -0.44791672 0.26324847 -0.4162086 -0.40595102 0.3015466 0.90440387 -0.10410856 1.5622312 -1.5687819 0.37260306 0.4275826 -0.24882531 -1.4942209 -1.2144659 -0.7706886 1.6802499 2.113702 -0.29374856 0.23597702 2.001537 0.058888614 -0.1486854 -1.6415052 -1.0395335 -2.5590978 0.61061406 -1.8782916 1.0653015 0.25843886 -1.0402412 0.43878767 0.3406136 0.91084146 -0.8676823 -0.86761177 0.64170027 -0.25440952 -0.024157446 -1.1501641 -2.1288235 2.3227856 1.80844 1.4876285 0.27422282 1.5602973 0.35368454 -2.4973187 0.7926872 -0.29176593 -0.9346501 0.76482666 -0.17918766 -1.1439366 0.041181594 -0.6752325 -1.4317526 0.040845305 0.30147067 -0.077275276 -1.802391 0.41995996 -1.1883098 0.072273634 1.5641571 0.30523118 0.654936 0.94159675 -0.4350082 1.6263827 1.8820089 -0.22776593 -0.61593664 -0.7665152 0.76511574 1.56997 -0.3531786 -0.23144247 2.5185337 0.80909014 -2.1240945 1.9519328 -0.16756518 -0.15717332 -0.9397818 -1.2241853 -0.15326533 -0.9670778 -0.2299632 -0.05667425 1.2915539 0.31461307 -0.64382356 0.34494084 0.93077576 0.9753308 2.727277 1.1538446 -1.197349 0.34232688 0.10572919 -0.2159281 -1.834194 0.6027237 0.23429781 1.072529 -1.4839742 2.3279495 -1.3267139 -0.5461707 -0.19526444 0.96469724 -0.7063356 0.34992406 2.5212007 -2.2556872 0.42441162 0.7804503 0.856839 -0.29341805 1.1150317 0.85348994 -1.2593741 0.7925849 0.6243208 -0.27658802 0.8613263 0.50490665 -0.16196787 0.3114137 0.41112378 0.9254731 1.8743372 1.17445 0.18682346 -0.37378472 1.5638204 0.9149221 0.7398815 -1.1214025 -0.3666414 -0.36983347 -0.45778427 -1.3331072 1.4905111 0.8472112 -0.8718521 -1.5815128 0.68273336 0.038610425
</s> 0.014894296 -0.017181868 0.020446006 -0.025979245 0.014345865 0.049432144 -0.039349146 0.042774886 0.028718835 -0.04459185 0.01936962 0.032302637 -0.038098518 0.010302244 -0.03725288 -0.03725288 -0.037605293 -0.03297334 -0.046849094 -0.053309903 0.051859234 -0.05243641 0.036946204 0.010062476 -0.012390943 0.031762324 0.031571113 0.037794307 -0.036063425 0.04476679 -0.05474972 0.05743533 -0.05703126 0.001242769 -0.035650946 0.010064793 0.02930507 0.057462703 0.022210695 -0.027411513 -0.022972269 0.02402086 -0.05110663 -0.027608395 -0.057307277 0.024921654 0.036746018 -0.038092025 0.033045948 0.0049888347 -0.016211439 0.04030208 0.007439394 -0.010297097 0.0095909415 0.01734469 0.021455832 -0.038515903 -0.0050655557 -0.018013505 0.009312114 -0.0109029785 -0.05462143 -0.027074207 -0.011326771 0.036915984 -0.05127553 -0.025870029 0.019204885 0.051959906 0.010920968 0.026680361 0.05456488 0.037645113 0.03717895 -0.005924025 -0.012594669 0.009084758 -0.025400054 0.03667175 -0.006520123 0.02645032 0.051608153 0.013175423 -0.038965613 -0.039482597 -0.044670712 0.019153118 -0.009256634 0.007142376 0.0029974044 0.020353202 -0.04593098 -0.05430278 0.046494406 -0.046569236 -0.0063074725 -0.040605836 0.0322305 -0.0039126007 0.009032974 0.025628349 -0.016612107 -0.037624415 -0.05404228 -0.041002307 -0.031284034 -0.046777118 -0.035686 0.008510353 0.010051082 -0.054856632 0.031410266 -0.02681086 -0.002328305 0.012692368 -0.024532657 -0.027176617 -0.019810425 -0.019432481 -0.0495761 0.043313038 -0.054281365 -0.0432819 -0.03229772 -0.028395556 0.005379973 0.012389123 -0.014244144 -0.021089531 -0.042984337 -0.045661945 0.0069950884 0.022639021 0.021291452 -0.03725288 -0.03565845 0.031494252 0.018736962 0.046497166 0.000444745 -0.05303313 -0.02268437 -0.028686931 0.004484898 -0.025632396 -0.01862644 0.005926098 0.005178652 -0.035941843 -0.01862644 -0.005650674 0.016333023 -0.012509416 -0.018405633 0.0063029225 0.01006779 0.00956167 0.008226598 0.017366549 -0.0012293137 -0.0070544994 -0.028027438 0.051052663 -0.039334483 0.0020344711 0.009696836 0.021199247 0.03850349 0.043077327 -0.006581635 0.04099248 -0.03190405 -0.030378286 0.015172729 -0.030314472 -0.014664084 0.010054263 -0.026445849 -0.02063713 0.049728364 -0.039195653 0.0047529307 0.009310976 -0.03725288 0.0075500207 -0.0011987215 0.0381464 -0.012119455 0.037396654 -0.03755599 0.026059646 -0.036982168 -0.037559565 -0.026419023 0.024361908 -0.009499156 -0.016465105 0.019296536 -0.053416543 -0.024634408 -0.015773214 -0.036729358 0.054249045 -0.006594982 0.05102782 0.00607833 -0.012293848 -0.013293704 0.052084915 -0.015031586 0.03460408 0.02504016 -0.0074905753 -0.02001259 0.041655205 0.0050118654 0.05042454 -0.002917831 -0.023254652 -0.03849311 -0.012314194 0.02213978 0.05361982 2.982345e-06 0.04505859 0.046194535 -0.0509145 0.052913666 -0.03812314 -0.007961698 0.052948285 0.04291318 0.021932848 -0.0016674994 0.014791384 0.031871803 -0.051676154 -0.005169049 0.02247784 -0.050829872 -0.008252688 -0.0132816825 -0.05339433 -0.009730667 0.014291216 0.02926486 -0.0068737995 -0.0102298185 0.0047390433 0.05193902 -0.015937299 0.035542972 0.04805233 0.053536 0.010935138 0.05267711 -0.0064761136 -0.0021033736 0.015887342 0.011049168 0.03765088 0.017625907 0.012203493 0.025136868 -0.043609705 0.02448918 0.05266241 -0.0042288285 0.008321646 -0.012689241 0.05152629 0.02878297 -0.019681118 0.05416403 -0.004814069 0.0490237 0.048181374 0.038982168 0.0052727545 -0.024947887 -0.024957677 0.032634195 -0.0024938586 -0.032483246 0.018122066 -0.032511394 -0.05304203 0.023153303 0.027192151 -0.02601505 -0.010669977 0.04262316 -0.03725288 0.02049548 0.00942357 -0.009221842 -0.025770467 0.018941028 0.05291475 0.026099551 -0.019438561 -0.015951399 -0.008421189 -0.013976248 -0.044418484 0.025859518 -0.01862644 -0.024715587 0.039286513 -0.008577471 0.0063676685 -0.033892095 -0.014191657 0.051286537 0.051137894 0.03725288 0.028407022 0.02723346 0.040232655 -0.021147655 0.02894062 0.013316763 0.054975066 0.023149492 5.308489e-05 -0.02980821 -0.019594306 0.023268193 0.017867465 0.05014531 -0.018129276 0.0356346 -0.027096821 -0.051819086 -0.051967915 0.038465947 -0.006862611 0.0021571526 -0.0019873325 0.04259874 -0.027693868 -0.01686873 0.045736566 -0.049065832 -0.045312427 -0.022733595 -0.04394694 -0.03273137 0.04435843 0.05353481 -0.037265275 0.0047048624 -0.026606876 -0.036736824 0.05360431 -0.034772526 -0.051813588 0.04615209 -0.018019019 0.00925964 0.009604784 -0.012881624 -0.001243927 -0.0409154 -0.020371314 0.057566356 0.031313628 -0.014484924 0.007905683 -0.052206114 -0.012574768 0.027074244 0.029991565 0.0059546623 -0.05093359 -0.01862644 0.018952977 -0.00037134113 -0.056189474 0.05369584 -0.025782177 -0.007010281 -0.00459836 -0.022946883 0.015147774 0.055323355 -0.01862644 -0.019795535 0.05342924 0.048798166 -0.010794701 -0.05050451 0.017492035 -0.006439921 -0.026389016 0.051752318 -0.04782545 -0.04520548 0.054159313 0.031782076 -0.024546811 0.025169007 0.027269404 -0.016706936 -0.029295243 0.03052187 -0.01862644 0.0031555085 0.017924597 -0.032737836 -0.035734892 0.052749835 0.019740868 -0.01375578 0.024878653 -0.013560877 -0.03733455 0.020614158 0.01955977 0.038298756 -0.010747782 0.0011641525 0.052043997 0.013131132 -0.048270587 -0.020075692 0.054280836 -0.0056436458 -0.044854637 -0.057270635 -0.014658764 -0.025801169 0.052876275 -0.05055765 0.05760811 0.00054366485 -0.03546182 0.028667232 -0.020760776 -0.039452843 -0.018483208 0.02596772 -0.021068549 0.03834003 0.018545026 0.027114315 0.03268672 -0.039578732 0.02964158 -0.04771349 -0.02566437 -0.037791893 -0.022899646 -0.050895683 -0.03662751 0.042066414 -0.0422109 0.02616488 -0.05715406 -0.007455191 -0.035302076 0.05477085 -0.020427033 -0.0010579943 -0.03208833 -0.022318555 -0.049897846 0.054721627 0.008126869 -0.01862644 -0.028757794 -0.044980645 0.0017645336 -0.053380843 -0.05472781 0.002081705 -0.051190447 -0.046001006 -0.043615345 -0.05225697 -0.03621021 0.006697637 0.028207947 -3.502461e-05 0.011769724 -0.011406563 -0.006712923 0.00959416 -0.0073219985 0.045027137 0.018981924 0.03321117 -0.022462187 0.018385222 0.02576096 0.03149411 -0.0020992265 -0.04985212 -0.0029503459 0.024242068 0.051103055 0.015292343 0.008802776 0.04236324 -0.013397185 -0.024097012 0.029145477 0.019049188 -0.020421281 0.021526815 0.010898705 0.04453073 -0.0032910744 0.05144235 0.047056474 0.0425277 -0.054877732 -0.038422167 -0.05593627 -0.033349987 -0.02244423 0.027652226 -0.041393492 -0.0066443025 0.006653913 0.044730257 -0.03833502 0.015327433 0.0043645916 0.01697579 0.057348292 -0.029971212 0.031452253 0.04242944 0.00931322 -0.034953255 -0.0187287 0.032326173 0.0064558745 -0.030587062 -0.049657587 -0.043942485 0.040021125 -0.026453841 0.013143719 0.020516751 -0.036690064 0.025261542 0.019912552 -0.013402785 -0.023082862 0.051617227 -0.03725288 -0.05302709 -0.050436355 0.023643006 -0.010356417 0.0011228387 -0.05316243 0.027187634 -0.04545115 0.025572738 -0.036017913 0.034732845 0.037708674 0.015773661 0.0015953284 -0.02790192 0.03796119 0.01335869 0.02918788 0.030455116 0.039175365 0.034354355 0.00047231134 -0.036486372 -0.01862644 -0.0075563705 0.01701954 -0.009508767 -0.04550123 0.002991035 0.024971597 -0.02601988 -0.025283216 0.05404025 -0.025800467 -0.027738065 -0.052646592 -0.007857607 0.055076305 -0.03784967 0.028151343 0.025388397 0.029768 -0.021882324 -0.0010433731 -0.021571234 0.04922551 0.0440645 -0.044543758 -0.030490592 -0.019920692 -0.02462721 -0.01862644 0.044048943 0.030694824 0.052350014 0.057388347 0.0051365634 -0.027382625 0.033863775 -0.012865768 0.025552265 0.012706894 -0.0029225696 -0.05324725 -0.032930084 -0.0035974158 0.013885233 0.026432889 -0.0049831253 -0.054519404 0.0549495 -0.032365885 0.05729804 -0.043115795 -0.05529569 -0.012512769 -0.00078055676 -0.035603672 -0.030129341 -0.0352056 -0.057259683 0.0437732 0.03649628 -0.04082649 0.017328218 -0.05661141 0.053615443 -0.042799503 -0.030044822 0.025975866 0.05273449 -0.026389271 0.027168017 0.0128414575 -0.03725288 0.03304656 0.01616188 -0.03778173 -0.035319816 -0.04743257 -0.038610823 -0.00010220313 0.053424664 0.042978596 -0.044692058 -0.053283393 -0.033318724 -0.002472834 -0.011446152 0.03753673 -0.055220783 0.019424625 0.04838884 -0.013398682 -0.01978303 0.024933422 -0.022039061 0.051967867 0.03338444 -0.004683098 0.053709853 0.027744306 -0.022107191 -0.05533271 -0.011832378 -0.02648187 -0.052995622 0.056714162 0.013540469 -0.0059033907 -0.024441032 -0.050399687 0.05010099 0.01593399 0.025646541 0.056482375 -0.04517322 0.04893759 -0.05667408 -0.029751295 0.05157458 -0.0010162325 -0.034315187 -0.004777327 -0.0061062947 0.03142112 -0.008711751 0.054825656 -0.021881536 -0.0014788273 0.04980103 -0.03725288 -0.04314379 -0.037266847 -0.010479023 0.050874308 -0.054264165 0.051932424 0.020379152 -0.022240808 -0.05487005 0.0116403615 0.01277095 -0.042920113 0.017645115 0.051221695 0.037802026 -0.03776005 0.028125802 0.029499993 0.039872743 -0.05015603 -0.027704794 0.015965398 -0.013322259 -0.057663422 0.046474703 -0.051544636 0.015150676 -0.027435118 0.035855938 -0.03320671 0.00020399281 0.008637689 -0.006540567 0.051662445 -0.012905351 0.03708064 -0.0056892335 0.046956718 0.055619475 0.015119692 -0.034148615 0.021596046 0.0345767 0.042906173 0.05458504 0.0024016672 0.0513445 0.01008757 -0.009286679 0.018686505 -0.044403933 -0.016228067 0.05319481 0.048034415 -0.049527306 -0.049610488 0.057149887 -0.00931322 0.004427421 -0.04866322 0.027027324 0.016496174
但 -0.29558152 -0.062036306 -0.05314864 0.27256748 0.037903503 -0.23091274 -0.24314584 0.305388 0.18367532 0.0790678 -0.1803509 0.11106554 -0.0012422123 -0.16393553 0.15965025 0.00632786 -0.35613585 0.13191232 -0.068345964 0.21932524 0.12078425 -0.2096969 0.07255982 -0.17637011 0.12086543 -0.064603895 -0.060851265 0.16968837 -0.017250186 0.08747931 -0.16034961 -0.24510752 -0.12458081 0.22898234 0.11843885 -0.049910467 -0.04703669 0.360938 0.042153314 0.042463433 0.04961702 -0.10048563 -0.6145694 -0.3313602 0.13986513 -0.051518198 0.19862078 -0.12187498 -0.12774636 -0.1456502 0.0732687 0.16971675 0.1891403 -0.22752732 0.07768711 -0.0008033275 0.11808761 -0.010718073 -0.0734975 0.0303725 -0.18986818 0.047756948 -0.16123107 0.13898264 -0.16969024 0.12300865 -0.06116828 -0.024828162 0.17689091 0.31996992 0.21999048 0.051317807 -0.39523587 -0.056149296 0.03618168 0.06356668 -0.110433474 -0.26895982 0.113434404 0.20731144 -0.07292194 -0.21011126 -0.2603117 0.0874941 -0.3951502 0.16182072 0.07634132 0.14040464 -0.02165828 0.17628196 0.0031027747 0.14252265 0.028231982 0.0052484656 0.16535546 -0.03829209 -0.34931833 0.042130835 -0.03970001 0.026264424 -0.21758682 0.0018634985 -0.2307034 0.07252119 -0.009416575 -0.07282645 0.019483736 -0.09514943 0.09154169 -0.12628473 -0.09828387 -0.23877658 -0.29078394 0.13833599 0.12419465 -0.042449128 -0.04157984 0.044577315 -0.24218367 0.28113222 0.041006684 0.5434314 0.07481882 0.20207085 0.07135441 0.10932472 0.16873804 -0.14900488 0.06616329 -0.3231196 0.05916353 0.0432053 -0.053373594 -0.09393731 -0.4202955 -0.010908916 0.19717658 -0.005975462 -0.04929239 0.22118379 0.18085863 0.09014621 0.34437156 0.038101513 0.2147752 0.029475389 -0.59789443 -0.007502256 0.005979969 0.36789572 -0.041933574 0.526967 0.04724815 -0.55982107 0.021915551 -0.14356318 0.38757646 0.015262441 -0.3814245 0.19407713 -0.1734433 -0.13249983 -0.090883896 -0.42910236 -0.013485403 0.014122025 0.24868132 -0.10741522 -0.4684213 0.03664135 0.2066426 0.13728626 -0.15801582 0.09294862 0.02442073 0.5100335 0.07040449 0.33598176 -0.08230515 -0.07757905 -0.21466522 0.029581292 -0.15230614 -0.12326203 0.09512747 0.04934001 0.1457526 0.2200148 -0.08109406 -0.06593618 -0.41419607 0.28362268 -0.1920021 -0.17291634 0.2673804 -0.43215096 -0.08303823 -0.014114891 -0.10937059 -0.09819465 0.08428382 0.26563337 -0.08660423 -0.063358136 0.106966846 0.17118114 0.3719715 0.13464178 -0.17355505 -0.026458383 0.07901485 -0.038090624 0.10454075 -0.11933712 -0.18285349 -0.019502476 0.007250446 -0.24554631 -0.16870077 -0.21561275 -0.3378705 -0.087295294 0.17769916 0.10711089 0.097493604 -0.3667167 -0.034542654 -0.15983136 -0.07010064 0.19880104 0.21433368 0.27144474 -0.21252306 -0.018283075 -0.23360081 -0.078560546 0.44054675 -0.32607716 0.109331116 0.034593634 -0.085653536 -0.09888545 -0.004011529 0.12969828 -0.13955213 0.21825695 0.046763476 0.24680564 0.030394953 0.05015059 -0.063176386 -0.20311156 -0.02038989 0.09652306 0.029493744 0.20579836 -0.3698695 0.22804071 -0.029957522 -0.035675902 0.16652663 0.0948388 -0.2159287 -0.048546888 -0.094260015 -0.22910254 -0.10949502 0.455247 0.1567553 -0.20922521 5.4674485e-05 -0.22204176 0.06866683 0.137163 -0.04365929 -0.05464155 -0.21374449 -0.288342 0.31442 0.4416527 0.13934755 0.18293373 -0.13046603 -0.1865946 0.31816256 0.19543923 -0.11174093 0.046768654 -0.6009079 -0.33029467 0.09445066 0.20201145 -0.48669988 -0.010548287 0.10355852 -0.32250854 -0.39961419 0.19480832 -0.16907199 0.11352841 0.061695635 0.13543138 0.46010444 -0.05704974 -0.13277628 0.19928524 0.030383527 0.11702687 -0.10217104 -0.31994277 -0.19689927 -0.041587263 0.41757554 0.07075974 -0.07701871 -0.09414568 0.26118928 0.04901145 -0.2231957 0.5807072 -0.22046551 -0.06480851 -0.14080408 0.1697188 0.009230929 -0.2230924 0.18879378 0.21462703 -0.2970462 -0.43304452 0.226201 -0.26440704 -0.016376257 0.007674482 -0.21415965 -0.08557757 0.3324465 -0.051213384 0.07682357 0.08227012 0.03048555 -0.03159139 -0.07889262 -0.4544418 0.04338945 -0.19439687 0.3575103 0.5204432 0.057824075 0.22692358 0.41081443 0.034186665 0.059937097 0.043288704 -0.28435743 0.03726299 0.24197513 0.14808266 -0.07704968 0.092201054 0.06627803 -0.032992255 0.04553373 0.2545044 0.39456052 0.084749274 -0.44661266 0.07782779 0.1518951 -0.33409944 -0.017057005 -0.15763056 -0.14000896 -0.06700616 -0.08119747 0.18224078 0.044568818 0.12835515 -0.14198753 -0.032402974 0.07200716 -0.012225444 -0.43634644 0.10671733 -0.13649663 -0.062367827 0.067667454 -0.029763425 -0.16603377 -0.29934365 0.12788986 -0.00983224 0.34182012 0.15217108 -0.09242951 0.3180258 0.027882298 -0.10384197 -0.0030236964 0.6167845 0.4070327 -0.14497349 -0.24882382 -0.4820467 0.074416764 0.15609878 -0.30383545 0.3819652 -0.0042871274 0.07740343 -0.048831742 0.05703332 0.25655556 -0.041040435 -0.16700618 -0.2510322 -0.060326252 -0.17755489 -0.16919973 -0.19253013 -0.14834584 0.020072354 -0.11546849 -0.11988493 -0.1379866 0.039453972 -0.031098567 0.16972429 0.41062096 0.192196 0.29356495 0.11271249 -0.040955935 0.23399214 -0.17020468 0.33080134 -0.039980132 -0.16012546 -0.06346426 -0.006454602 0.22145602 -0.17984003 -0.010282995 0.23899837 -0.056071382 -0.12383432 -0.08421668 -0.03868759 0.077083096 0.14950085 0.042338673 0.1971199 0.06849645 0.20313653 0.5613754 -0.14238147 -0.063850746 0.19824949 -0.46175674 0.40406632 -0.046821684 -0.082587846 -0.12626348 -0.03773889 0.0075210314 -0.070586465 0.15476663 -0.20442562 0.2904238 -0.1853479 0.14508127 0.15998365 -0.010998237 -0.11756537 0.18211389 0.118059374 -0.24397108 0.18599167 0.17424889 0.020461636 -0.07319263 -0.070452444 -0.10120336 0.4156856 -0.032925908 0.078973524 -0.26311255 0.13645314 -0.0018601445 0.42403796 -0.070653826 0.19662601 -0.18856153 -0.08139808 -0.0073309857 -0.20734777 0.055135317 0.15937749 -0.34024477 0.022001663 0.1395942 -0.18169186 0.059907213 0.06929396 -0.08082886 -0.2688528 -0.17939892 -0.11312541 -0.21938846 0.04185198 -0.07657033 -0.01825924 0.0008873741 -0.12392617 0.013677376 0.36471447 0.10196584 0.0006762586 0.16356675 -0.17419353 -0.16026384 0.014151809 -0.04059263 0.34883985 -0.07301142 0.19695233 0.05923322 -0.45225587 0.053226344 0.2686556 0.13732 -0.29548573 -0.07507727 -0.04231076 0.034957133 -0.17321168 -0.0016050718 0.2520381 -0.06512634 0.3041117 0.11658586 0.17267035 -0.069215715 0.07384015 0.09374161 -0.10653587 -0.41010875 -0.099160425 -0.072606854 -0.04097131 0.111929424 0.030079825 0.103232674 -0.0887198 0.03744931 -0.06284076 -0.014071833 0.0337355 0.4105873 -0.122541666 0.041105207 0.17478263 0.17800902 0.19478741 0.052727945 0.049387295 -0.15450706 0.075112835 -0.13530594 0.10713334 -0.02232392 -0.071099654 -0.17165238 -0.12527707 0.0002452802 -0.13094558 -0.07379775 0.019507727 -0.1506705 0.46538284 0.15938778 0.20229118 -0.28400183 -0.3146735 0.044742312 -0.015942134 0.14260048 0.2609124 0.29611692 -0.04662672 0.121144526 0.05581165 0.07331665 -0.059325725 0.10436277 -0.49516097 -0.13863137 0.24243228 -0.06921942 -0.06890912 0.13654912 -0.10577032 -0.066907465 0.055131614 -0.22623855 0.062325884 -0.11321857 0.14006574 0.47446102 0.20678875 0.02936643 0.16040686 0.15782537 0.0855664 -0.0074140835 -0.19243558 0.0037011232 0.052538604 -0.1147997 -0.07416331 0.031130252 0.0155607 -0.018377116 -0.27672675 -0.076512985 0.18514074 0.25858763 -0.059065614 -0.06308816 0.034147836 -0.36816838 0.034292363 0.01707081 -0.012320789 -0.088059835 0.02426686 -0.1469762 0.10184709 0.27129215 -0.14249589 -0.34235942 0.18587372 -0.17286508 0.1887546 -0.17754425 -0.086848386 0.13459368 0.12059042 -0.4077028 -0.051757388 -0.102449045 0.04712496 0.22917882 -0.01554052 -0.08122932 -0.25918177 0.18135434 0.18667556 -0.17968582 0.39339912 0.55528253 0.17097977 -0.029797066 0.145188 0.16142917 -0.16796668 0.2745701 -0.6203078 0.058345083 0.25276437 -0.07830434 0.29748863 0.16528311 0.08000435 0.012489654 -0.06953695 0.19990487 -0.036481753 0.10058604 0.37427914 -0.17970806 -0.10298543 0.48849866 -0.17440782 -0.33131874 -0.07605832 0.120335944 0.021906791 -0.09977829 0.6098934 0.27551615 -0.12130494 -0.12654257 -0.17043461 -0.0516332 -0.09938363 0.09645532 0.09153477 0.040879708 0.20753685 -0.10640616 0.05279363 0.057403557 0.1014436 0.45922315 0.08858168 0.53507537 0.013852505 0.015285102 0.26168844 0.098551966 -0.30882493 0.04059773 -0.19896273 0.25572342 0.47540018 0.21318337 -0.08091795 0.06383781 -0.062694 -0.0070076645 0.042504314 0.34930712 0.096067816 0.015651964 0.24856861 -0.11334422 -0.26062256 0.031574335 -0.065362126 -0.055756263 0.007591585 0.33217594 0.06927524 0.15633361 0.14542712 0.20968923 0.16548398 -0.13815418 0.09304998 -0.1414332 -0.15355831 0.012896844 -0.2512332 0.11301032 0.09435445 -0.23793937 0.12084564 0.5401975 0.054386828 -0.0022610226 0.055447586 0.03216551 -0.35794598 0.48941937 0.025766127 -0.2946853 -0.19992645 0.2572298 0.24037248 -0.32524636 0.11445672 -0.034783263 -0.06633664 -0.32016423 0.10716983 -0.16781677 -0.13081834
随 -0.20409703 0.14153174 0.32732522 -0.07835115 0.25476322 0.10079676 -0.11068404 -0.021453626 0.11469075 -0.072699726 0.29920983 -0.1510764 -0.05342323 -0.11589692 -0.03281211 0.2001374 -0.18743409 0.092111796 -0.032744374 -0.26187983 -0.1591755 0.11350182 -0.056535818 -0.17426251 0.08189192 0.020304669 0.35826612 0.09543984 -0.26744616 -0.1563286 -0.15648757 -0.17538714 -0.14583662 -0.079673916 0.1307146 -0.4354314 0.21001846 -0.18435007 0.06619692 -0.26502717 -0.00026275602 -0.13098212 -0.0589497 -0.34210888 -0.27014896 -0.060274895 -0.2204356 -0.007556458 -0.12734386 -0.31397426 0.1399359 0.17550339 0.2156146 0.065467164 -0.0548812 -0.15748413 -0.46377575 0.40793258 -0.17544718 0.28200507 0.5919957 -0.0149478335 0.13880484 -0.22511739 -0.10811954 -0.5308269 -0.047845718 -0.25421068 0.12454577 0.38903543 -0.0954028 -0.1919581 0.22427844 -0.0022087384 -0.05032028 -0.29256397 -0.3999561 0.47356838 0.08862081 -0.11033 0.13831288 0.2663723 -0.03213177 -0.046236496 -0.120626174 0.042043306 0.17672238 -0.15276606 0.1501363 -0.12717734 -0.29216212 -0.07183694 -0.105807334 -0.05195199 -0.008027576 0.37269202 -0.07319281 -0.21505225 -0.013216864 -0.3858723 0.1242826 0.026918225 0.32723364 -0.58162117 -0.101486996 0.27597803 0.08335421 0.15577382 -0.2797662 0.21435246 -0.08794989 -0.31344825 -0.1748566 -0.16843347 -0.019071814 -0.37155625 -0.25498503 0.23729602 0.22332153 0.1657756 0.18565656 -0.23371217 0.09711177 0.16510461 0.15219368 0.30253688 -0.009692709 0.11388175 -0.20774756 -0.040823646 -0.016203914 0.097979635 -0.40474758 -0.050064694 0.46748966 -0.0031952898 -0.13824408 -0.15030333 0.04741489 0.194435 0.101552114 0.18235062 0.27905306 0.064119086 0.040148385 -0.060370125 -0.15017954 0.3698773 0.19684428 0.21579678 -0.079432294 -0.05845842 -0.22511311 -0.12858412 0.35264367 0.011818778 -0.053445686 -0.029907221 0.13306947 0.3956158 -0.2897565 -0.052979197 -0.11126268 -0.14426464 -0.21772853 -0.26976466 0.37263387 0.13509722 0.06142959 -0.046178874 0.18849507 -0.20703097 0.17071255 -0.09260661 0.12437767 0.061846085 -0.0068427203 -0.20963806 -0.1057918 -0.28689477 0.0036486613 -0.060724866 -0.5764967 0.03448356 0.30585423 -0.07723734 0.30201373 0.1848848 0.25057992 0.23248973 0.19043235 -0.37125036 -0.08986828 0.22950399 0.25186744 0.02517283 0.1812631 0.3100808 -0.22996625 0.14570147 -0.20857695 0.41317785 -0.079488665 0.0006696777 -0.112301245 -0.28156042 0.4278369 -0.13648267 0.011445348 0.10625204 0.03501914 0.10485495 -0.08922138 -0.27998698 -0.06367517 0.1834689 -0.29516315 -0.18861419 0.046512637 -0.27591184 0.11758683 -0.07397968 -0.018916585 -0.01383092 0.27702498 -0.35101283 -0.20358494 0.17925082 0.15926027 0.22980882 0.089208 0.09971702 -0.26616558 -0.25764436 -0.20833287 0.2504452 0.1664478 0.15050273 -0.25195497 -0.06379169 0.057356365 0.36411464 -0.052996427 -0.21971914 -0.033869468 0.16878507 -0.193252 0.38437152 -0.26092002 -0.05493814 -0.11163315 0.2555553 -0.08387106 0.081981584 0.04730699 -0.01919084 0.24376726 -0.025630804 -0.17427279 0.14536168 0.4706997 0.2794858 0.17544433 0.009367931 -0.010350032 -0.305707 -0.07224143 -0.15430826 -0.20666228 -0.28673258 0.009701185 -0.386905 0.23002577 -0.048597928 0.23670816 -0.21283084 0.113916285 -0.0294951 0.14321762 0.25738806 0.36501506 -0.15002868 0.34281006 -0.014876786 -0.25330427 0.09278128 -0.14095661 0.14854386 -0.119021006 -0.110970885 -0.04157294 0.10075149 0.16361994 -0.0048370496 -0.22913507 0.10212554 -0.26675484 0.052005548 0.06855788 0.060591973 -0.4848546 -0.029758122 -0.04066939 -0.19772467 0.23269096 0.52877694 0.092965454 -0.26527712 -0.0572528 0.04340167 -0.020120349 -0.30407926 -0.0340772 0.10397058 -0.08054041 0.18016122 0.24673674 0.11143054 0.008069814 -0.041912425 0.031790074 0.24993047 0.2970807 0.25556812 0.10404475 -0.068398796 -0.028520089 -0.119233064 -0.06438039 -0.351207 0.08820192 0.043136206 0.066357516 -0.280364 0.18478969 -0.07160452 -0.06636372 0.17259602 0.21830776 0.11997286 -0.03602948 0.042525977 -0.25858468 0.05300454 -0.08774712 -0.10602007 -0.020122956 0.099945575 -0.039988104 -0.16380861 0.096710354 -0.49977806 -0.02250565 -0.1944978 0.41310266 0.48460507 0.10968505 -0.27475366 -0.19912899 0.13100162 0.24608056 -0.20084664 -0.016135927 0.15485077 -0.09951198 0.09709148 0.31389526 0.13261862 0.015155362 -0.12343751 0.06076112 0.06698263 -0.28025183 -0.0065184543 -0.35102496 -0.16982406 0.025911732 -0.0785146 0.012426065 0.21863113 -0.29528874 -0.137351 -0.1861277 -0.052798826 0.06896195 0.014891065 -0.10725275 0.09124713 -0.037573703 0.15203641 0.08016587 0.34994817 0.16751644 0.1647477 0.34418848 0.23136944 -0.34908932 0.19248751 -0.33144128 0.06510625 0.15437616 -0.4461589 0.06505838 0.030601114 0.1119964 -0.12199272 0.04303706 -0.32508117 -0.11821897 -0.087099366 0.10406724 -0.288005 0.046128403 -0.10890694 -0.42362392 -0.57852244 0.060353197 0.12871502 0.061496504 0.096418604 -0.109326355 -0.30603406 0.043277487 -0.20775323 -0.10410645 -0.112719096 -0.16900676 0.07746781 -0.35729134 0.09794882 -0.2232264 0.1329976 0.48086387 0.12393326 0.32465008 -0.055642594 0.20057517 -0.10703176 -0.4445715 0.69781154 -0.12736323 0.030223299 0.08093504 -0.13058487 -0.12260093 0.16442311 0.2639115 -0.11934099 0.022862507 0.27525955 0.41481146 0.13619423 -0.15568094 0.003983079 0.2903958 -0.16357568 0.208683 -0.048485532 0.27553877 0.088537596 0.26456794 -0.1828193 -0.060482726 -0.2052419 0.41732818 0.28272524 0.16130508 -0.12594207 -0.0032035378 -0.08860251 -0.007898252 0.03620286 0.034157302 -0.12929347 0.034752194 0.09692036 -0.40273955 -0.14654456 0.02380453 -0.26895085 -0.50361234 -0.56347924 0.21502657 0.04306768 0.089821726 0.10899462 -0.06626082 0.39970043 0.19908074 -0.16358626 -0.0026919344 -0.2618109 -0.32322672 -0.08913846 0.12114114 0.15923004 -0.06103078 0.08185755 -0.0072385306 0.040757127 -0.22988088 0.083734944 -0.19876479 0.25883585 0.20899613 0.05610076 0.089885004 -0.06066228 0.24414405 0.07778364 -0.51526994 0.17707953 0.01599077 0.07808528 -0.03833926 0.09314141 0.048791893 0.44414672 -0.4683123 -0.3066047 0.04034208 -0.098059654 0.09947985 -0.011424799 0.010305983 -0.19151755 -0.22216503 -0.045859035 0.2493108 -0.12580556 -0.052565586 -0.45305806 0.072595805 -0.1920354 -0.1479116 -0.19046113 -0.044295315 0.0797839 -0.14753737 0.22353454 -0.024892649 0.06990025 0.39605653 -0.15428047 0.29114878 0.08444759 0.12229754 -0.30796248 0.28324586 0.30151492 -0.3548627 -0.14567134 0.12320345 0.19106567 0.035040632 -0.14890745 0.1458657 0.07659385 -0.2578301 0.12110293 0.21717817 -0.057929575 -0.5874122 -0.100789405 0.051604502 -0.0130156055 0.19855615 -0.115917325 -0.2604284 -0.020169757 -0.36598322 -0.17178793 -0.32321373 0.044069998 -0.10269818 0.10401531 0.16557637 -0.17809066 -0.085098565 -0.023977865 -0.039185792 0.041663054 -0.17866679 -0.24208201 0.106278904 -0.037295733 0.31451726 0.37398902 -0.086966574 0.15728892 -0.14589058 0.047445394 0.2844689 0.05211546 0.07605569 0.082816884 -0.4450603 -0.053362895 0.06286945 -0.3193672 -0.48985744 0.0039395187 -0.17323042 -0.117732294 0.2729435 -0.15859964 -0.216335 0.20961443 -0.13189644 0.19714715 0.07963969 0.015217253 0.1303971 -0.35705972 0.39751032 -0.007025138 -0.57154995 -0.03272888 0.024263445 -0.060556784 0.05540644 -0.10593512 0.04700665 -0.107262135 0.04890954 -0.007943846 -0.29203153 -0.4263877 0.037786685 0.10557718 0.15039922 0.08830657 -0.092966124 -0.1984435 -0.22420503 -0.3983568 -0.19538665 0.2571699 -0.09763631 -0.028285567 -0.38765022 -0.123564206 -0.43763238 -0.06016308 0.112822406 0.11446084 -0.2140758 -0.030265545 0.03374882 0.47211248 0.24602534 0.13868268 0.0540418 0.1245423 -0.12924412 0.07677498 -0.030176383 -0.03684731 -0.17740358 0.24702199 0.101821944 -0.018059216 0.034285415 -0.28749743 0.09319446 0.14634207 0.14742564 0.045739893 -0.12707442 0.5725572 -0.27300087 0.05193251 -0.06838089 -0.014952829 0.04529522 -0.5670191 0.16492257 -0.37904683 -0.025170067 0.14539866 0.21063302 -0.09064124 0.24485168 -0.11297158 -0.3130179 0.21730019 -0.25394106 -0.108327806 -0.120323665 0.013322074 0.0062152995 -0.10661096 -0.13569051 0.11619851 -0.42295256 0.83101946 -0.10347814 0.14517252 0.10529822 0.2693848 0.17296442 0.22701907 0.0156242475 -0.051793694 0.34379888 -0.1859364 0.1801507 0.011510906 -0.46193054 -0.08925946 -0.29257715 -0.055885486 0.059218973 0.09370256 -0.020017274 -0.08946986 -0.26082173 0.11905202 0.1025443 -0.7190285 0.0017218741 -0.09233998 0.15921292 0.028752513 0.13923748 -0.09757681 -0.11184114 0.18308072 0.13359478 -0.25574794 -0.006520731 -0.30372503 -0.20785503 0.071521655 0.102589615 -0.0874728 0.15426372 0.1438189 0.070127435 -0.020566622 0.0152413305 -0.15252447 0.37401018 0.07791743 0.4065195 -0.03750066 0.14492057 -0.05952655 -0.40061334 0.16212939 -0.29399815 0.08572421 -0.049382098 -0.057212133 0.09667794 0.2866373 0.27077055 0.1418232 -0.4070273 0.016224695 -0.23085462 0.25329837 0.3593117 0.1638171 -0.40918088 -0.07438684 -0.48632303 0.016083365
着 -0.09215251 -0.22448994 0.26739243 0.059170883 -0.17326799 0.15260418 0.16557044 0.09555157 -0.32109988 0.0540176 0.026648639 -0.1752434 0.24273103 0.019628434 0.10982341 0.15298468 -0.06875737 0.164706 0.4349192 0.36506787 0.2028685 0.27390772 -0.09267514 -0.37907204 -0.09371981 0.045010827 0.30885595 0.17288624 0.19671284 -0.19942883 0.2741968 -0.022488747 -0.008746784 -0.065762244 0.30578342 -0.3781988 0.19728419 0.106661975 0.18744315 -0.194572 -0.24672772 0.08781328 0.0641575 0.11223676 0.21980914 -0.010390435 -0.13918108 0.20965071 0.08477402 0.09030466 -0.21440138 -0.26332563 -0.04402751 0.07429454 0.03696032 0.2624308 0.039064277 0.012324756 -0.11260709 -0.021566754 0.03266409 0.028219845 -0.098505005 -0.067976594 0.1971506 -0.045295935 -0.13081749 -0.18743967 0.03483184 0.05646308 0.20423262 0.11743454 -0.14973587 0.023727689 0.31301427 -0.0117620705 0.07505774 0.06079391 -0.18442011 -0.27259967 -0.23052566 -0.07227142 -0.1424227 0.34004998 -0.29163665 0.14103606 0.040391475 0.1470392 -0.02796899 0.010425058 -0.30063558 -0.30158475 0.086730674 0.047835693 -0.3138184 0.1407447 0.17184262 -0.010536526 0.10856728 -0.23402895 0.13291964 -0.14712898 -0.28806025 -0.09284501 -0.23518921 -0.19145559 0.06321689 -0.17553397 0.12866567 -0.09855246 0.39255103 0.013767751 -0.033465404 0.058596775 0.15861832 -0.008836438 -0.25375623 0.044123214 0.006807501 -0.23556155 -0.48398367 0.014834374 0.009203357 0.23868531 0.027614059 -0.20639671 -0.23871012 0.16801727 -0.032847192 -0.012918351 -0.1233774 -0.1719422 -0.12225807 -0.099108815 0.14249611 0.4889478 -0.13988116 0.15526621 -0.11758437 0.39642435 -0.10269556 -0.4410689 -0.04485509 0.04690389 -0.03979642 -0.029276034 -0.34002063 -0.119273186 0.16772895 0.24732523 -0.0982289 -0.11701626 -0.12344123 -0.29313096 -0.10318331 -0.16408806 -0.04031391 -0.044909347 -0.13732097 0.14359406 -0.2194757 0.083127506 0.05706222 -0.04839942 -0.039537326 -0.19558124 0.037668616 -0.0027527707 -0.14753754 -0.2742345 -0.11019303 -0.36238003 -0.011135076 -0.12575638 -0.26980937 -0.30176416 0.27208757 0.01034767 0.11213715 -0.23745702 0.38991594 -0.20858935 -0.040909473 -0.11205529 0.10519986 -0.18152095 0.046084955 0.08908776 0.0578905 -0.030547185 0.16129619 0.022319924 -0.35702372 -0.1347788 0.24239828 0.33454585 0.28989553 0.15904437 -0.108957544 -0.28202853 -0.039870027 -0.030364063 -0.07567942 0.29046166 0.21740001 0.1633343 -0.23665448 -0.016793191 -0.06781642 -0.04569393 -0.05224489 0.20987213 -0.01575514 0.044482615 -0.15662383 -0.16961893 0.059696984 -0.06971931 0.16183096 -0.23940651 0.103812404 0.042322014 -0.21737862 0.27548468 0.22094636 -0.14207338 -0.002675709 0.05027679 -0.45671564 0.24851032 -0.27507055 -0.030122064 0.058015537 0.1570384 -0.021003366 -0.2241035 0.25865915 -0.024015734 0.008289383 -0.075701274 -0.13972914 -0.066507235 0.15863265 -0.111967646 -0.16920987 -0.2380226 -0.04575894 -0.021500783 0.023833886 -0.15469499 -0.14593506 -0.22052267 -0.0995026 0.1270705 -0.12684049 -0.13821842 0.117271826 0.22918548 0.0013173929 0.15388544 -0.1861602 0.21911134 0.02881511 -0.18433207 -0.075859606 0.2943833 -0.08442339 0.36855423 0.09599677 -0.069915414 0.033798136 0.044211205 -0.2458277 -0.122992106 0.27286255 0.09102879 0.12741576 0.009233686 -0.24834777 -0.016029533 0.32842156 -0.1606489 -0.25905454 0.21593727 -0.024282778 -0.16718273 0.11019423 -0.21755823 -0.26023751 -0.033443846 0.09082623 -0.3554683 0.12754145 0.15025523 0.27055126 -0.18192405 -0.43514243 0.1114055 -0.09670509 -0.1695509 0.091338255 -0.13670668 0.15632646 0.27524233 0.4701807 -0.21504404 -0.09415242 -0.1817149 0.11949608 0.20310137 -0.1169699 -0.07396588 0.26214463 0.086000085 0.24348803 -0.17610385 0.11719754 -0.08626029 0.021092746 -0.08202626 -0.104643464 0.3107755 -0.060259104 -0.31670797 -0.0867044 -0.16994645 -0.039379343 -0.046590857 0.14490639 0.11968596 0.15724297 0.051712632 0.01674418 -0.19666502 -0.09104312 -0.092466325 -0.076315396 -0.13870995 0.27880844 -0.006170255 0.05043674 0.09337491 -0.2925853 0.09462896 0.021850035 -0.098509684 0.2355244 -0.06579197 -0.24663757 0.025351765 0.0004107764 -0.12684108 0.071253724 -0.09519919 0.1547059 -0.20004159 -0.006216461 0.12416237 0.21419536 0.2770922 0.14492705 -0.09195052 -0.046917498 0.05565458 -0.023834739 -0.087499976 0.26102352 0.0024037678 -0.15771863 -0.15658036 0.21795593 -0.18117943 -0.17356798 0.34996423 -0.13353088 0.0048690937 -0.077900715 0.14956284 0.029999744 -0.25776964 0.091285504 -0.1282474 -0.47090128 -0.019028671 -0.0368133 -0.2553246 -0.09782408 -0.14281286 -0.08292186 -0.3555573 -0.10392479 0.21138668 -0.12410376 0.111309215 0.080500536 -0.108512156 0.019821716 0.0499989 -0.36528552 0.12635872 0.16673957 -0.421233 0.18975973 0.055458974 -0.12914345 0.026552262 0.08547776 -0.12146166 0.032157723 -0.17108516 0.16401652 -0.21622859 -0.24958803 -0.15299545 0.1308251 0.0377688 -0.27715516 0.12979147 0.064176485 0.2749092 0.05044503 0.08859795 -0.19849592 0.33318233 0.00073553494 0.09635672 -0.09573297 0.025326978 -0.10383206 0.26991078 0.16674031 -0.13890518 0.21975273 0.013714341 -0.1410105 0.15888506 -0.052268676 0.08367838 -0.010872605 -0.07978146 -0.052377287 0.16818658 -0.000693086 -0.15132163 -0.27809024 0.38811103 0.22556368 -0.0013170578 0.030254114 0.28971 -0.08582969 0.3658662 -0.023072436 0.15388007 -0.010687289 -0.16030157 0.2044124 0.0952322 -0.17767975 -0.048312362 0.12728073 -0.14396124 -0.021807753 0.11969609 -0.2665147 0.5270327 0.066405386 -0.14620002 -0.13293965 0.07895581 0.19799612 0.14228223 0.47780007 0.07551427 0.3794941 0.0376901 0.30165094 -0.06846609 -0.24925973 0.17038538 -0.07080058 -0.39065883 0.3000218 0.20809472 0.26013732 -0.15683274 -0.07264898 -0.13046247 -0.076463416 -0.16062587 -0.2157677 0.031425267 0.14048913 0.006066124 0.022399722 0.010526987 0.11803872 -0.014567007 -0.3812278 0.21006224 0.036351487 -0.00582342 0.11016444 0.14539987 0.03429368 0.038035735 -0.19439757 0.29868475 0.12392294 -0.11696262 -0.13938126 0.058361378 -0.15874632 -0.031209601 0.3560129 0.09073559 -0.4761736 -0.13602512 -0.22677957 -0.13224769 0.16896261 0.46739668 -0.1666135 -0.032665465 0.19654836 -0.22245997 -0.12796655 -0.29167005 0.11108287 -0.13025813 -0.04110288 -0.19979365 0.03294972 -0.21168801 0.25900677 0.2699445 0.12456689 0.19498114 0.009768484 0.46035448 -0.1523476 0.049632434 0.4230057 0.09535738 0.0915428 -0.0676604 -0.06637972 -0.3560343 -0.19820891 0.09775218 -0.5356638 0.14469597 0.20844111 0.17136598 0.24344882 0.13997078 0.18958163 -0.07523203 0.08685298 0.41642803 0.10217376 0.015142765 0.010813772 0.08448985 -0.10408438 -0.007132672 -0.25223815 0.0012040463 0.07280829 -0.05671795 0.061428186 0.079850696 0.06338881 -0.23704085 -0.18666546 -0.027421042 0.10403265 0.08266615 -0.11785437 -0.048691064 0.06473461 0.16440558 -0.33354196 0.22419813 -0.107309625 0.16642953 0.35554722 -0.27068606 0.06594607 -0.114899114 -0.27659217 -0.08279368 -0.068428025 0.16645771 0.011271945 -0.076330535 -0.15273724 -0.09380714 0.1645758 -0.35058212 -0.056344703 0.046102107 0.37859246 0.38044477 0.38590157 -0.12601802 -0.0045394036 0.22435987 0.07019731 -0.12241834 0.03809527 -0.20903517 -0.05643451 -0.45551834 -0.01301728 0.36263105 0.09113556 -0.3028904 -0.055437583 -0.024140522 -0.12444027 -0.05244007 -0.40100318 0.19342357 -0.2656777 0.52621907 -0.16521208 -0.31302145 0.039932553 -0.059626874 0.23518375 -0.1773398 -0.17014788 0.11734751 -0.42669183 0.034044873 -0.00914539 -0.11295388 0.05089531 -0.08710065 -0.03348332 0.08956861 0.2071603 0.18947867 0.06812801 -0.18091863 -0.098147765 0.004804335 -0.04776846 0.07349824 0.23989789 0.060832363 0.24523462 0.106227405 0.1967196 -0.09219291 0.13551193 0.105224825 -0.037378427 -0.04010612 0.017524289 -0.07818318 0.58827055 -0.23606281 -0.1030786 -0.045610316 -0.002846535 0.087499455 0.008153884 -0.08869356 -0.3226977 -0.15313902 -0.043186728 -0.043789968 -0.07301869 -0.11227309 -0.101476006 -0.20433669 -0.0002009854 -0.19638972 0.081461444 0.03766187 -0.00028459122 0.040807795 0.18532415 0.23940408 -0.028637802 -0.064698555 -0.07462187 0.09905401 -0.11838918 0.010630313 -0.0039464296 -0.22031257 0.11498134 -0.058043685 0.24447332 0.10601349 -0.22464503 0.26455814 -0.096207626 -0.05554192 0.073599145 -0.23911364 -0.15351641 -0.11757349 -0.3893483 -0.16441262 0.15313318 0.050239123 0.1859839 -0.09285286 -0.23288502 -0.06999588 0.33225656 -0.16754839 0.12897362 0.230409 0.04758426 0.06688249 -0.0055279424 -0.29766652 0.02775778 -0.14588892 0.024095723 0.0656382 -0.13091525 -0.05637381 0.6219324 -0.09906216 0.15330991 0.3775222 0.252424 -0.0053440672 0.1579104 0.07085672 0.2741814 -0.17713606 -0.012173713 -0.108514294 0.10431176 -0.38444525 0.20851898 0.5709321 -0.3200367 0.18525384 0.12286608 0.031298373 0.114435375 -0.1861452 -0.12905623 0.047895264 -0.15132037 0.030892933 -0.15025249 -0.14891417 -0.16756187 -0.078439645 -0.18083385 -0.076309 0.18464985 -0.15476252 0.0052828137 -0.08564532 0.048390586 0.047727916 -0.014169001 -0.12779187
计 0.08201193 -0.17607942 0.07144836 0.14834772 -0.15076438 0.014906305 -0.16462065 -0.19659108 0.25090796 -0.09831436 0.059311416 -0.20685373 -0.099292524 -0.33566725 0.084444426 0.011006347 -0.107860155 -0.09723306 0.31665453 0.011695299 -0.06876236 -0.27667016 0.046282277 -0.080321565 0.04265754 0.03174126 0.24682455 0.121979795 -0.18519679 -0.033488862 -0.06724917 0.15160502 0.03492133 0.26653367 0.09308851 0.06443907 -0.36726454 0.098191194 0.17019492 -0.016969245 0.29979613 -0.14706343 0.18420252 0.21800719 0.12776998 0.0029430285 0.14710216 0.0008730061 -0.02292852 -0.20073047 0.14490163 -0.112969756 -0.15121363 0.02981928 -0.28641817 0.38177532 0.12115635 -0.06667589 -0.24987428 -0.09878142 0.31718084 -0.07355766 0.0054941387 0.0042501637 -0.10913736 -0.07459993 0.2592108 -0.21930607 -0.074870504 0.21815857 0.029504513 0.09659777 -0.096360125 0.17019539 0.108640045 0.049766555 0.025510393 -0.2912446 -0.01110689 0.004786814 -0.14474262 -0.17325418 -0.0932717 0.19844756 -0.06784983 0.00090529263 -0.18919279 0.012632656 0.14916466 -0.06776439 -0.18846488 -0.2678656 0.095234014 -0.1278037 -0.07221565 -0.19857356 0.12800238 0.030901184 0.06974984 -0.6368467 0.011897009 0.20526406 0.19381645 -0.100796126 -0.025792686 -0.008060826 -0.25961527 0.14784715 0.19775517 -0.2957328 -0.0084311105 0.12888218 0.029412623 0.08264328 -0.03143141 -0.20084243 0.10049512 0.6656435 0.07164199 -0.14582059 -0.41595158 -0.21941786 -0.1642336 -0.21764041 0.011381783 -0.008517445 0.28170094 0.30501777 0.017964918 0.17461489 0.05498503 0.042919807 0.07125379 0.22220576 -0.07443728 -0.0757089 0.02173537 -0.09598031 -0.2075243 -0.15741974 0.28463206 -0.21439591 0.005790132 -0.25216937 0.101707235 -0.18467562 -0.03213383 0.117974244 0.119729064 -0.09939716 -0.08799376 -0.27349246 0.20683119 0.016844762 0.10938222 -0.028031303 -0.15977675 0.24135558 0.22280708 0.23477991 0.25836518 0.34549266 0.026891977 -0.019927165 0.19516976 -0.3137049 0.036313962 0.07218398 0.066331446 -0.04538006 0.025634479 0.20019498 -0.21539192 0.043245822 -0.09212706 0.30195928 -0.31057873 0.010178975 0.2439979 -0.06030395 0.2602336 0.14515056 0.16111791 0.15508954 -0.07132459 -0.22550789 0.363788 -0.4911414 -0.36729696 -0.15604445 0.076137766 -0.118216716 -0.026266878 0.46172988 0.052841302 -0.20541811 -0.18515232 -0.08867844 -0.13949281 -0.063717686 0.12448708 -0.049391072 0.3585634 -0.10566508 -0.055610146 -0.16024666 -0.24801499 0.006332033 -0.123845235 -0.12958471 0.017417628 0.250495 -0.26459265 -0.040738925 0.10464484 -0.033293527 0.18169367 0.10310014 -0.07891806 0.009328479 0.054968327 -0.2463081 0.08112711 -0.1747209 0.107241996 0.6430974 0.09226885 -0.38301218 -0.14881507 -0.018690115 0.29115868 0.2959096 0.41258928 0.13800554 0.2493347 0.28950503 -0.17272013 -0.106585555 0.01795265 0.22554135 -0.34155554 0.0931683 0.12180593 0.060825706 0.18837816 0.09402047 -0.5259602 0.024356076 -0.059171434 -0.15276067 0.10892495 -0.2081925 -0.085505076 -0.09472261 0.100993074 0.50904226 0.22137392 0.38245964 0.07142322 -0.044044204 0.30157045 0.13780004 0.080543876 -0.0797124 0.053588223 -0.39545384 -0.19739565 -0.115946 0.7420509 0.09885869 0.112121455 0.39708003 0.3749471 0.117931776 0.01785305 0.07879751 0.15294057 0.1992926 -0.007843324 -0.13647065 0.048998076 -0.20304185 0.29940546 0.11749134 -0.017028103 0.069436915 0.1738455 0.14933087 -0.14387326 0.36895284 0.5116126 -0.07473886 -0.027506528 -0.006560333 -0.07801534 -0.04891279 -0.13672633 0.031225989 -0.07448252 0.14200047 0.398605 -0.07565647 -0.08163596 0.21331434 -0.22416657 0.00974024 0.03423253 0.015547129 -0.040040735 -0.05435221 -0.1854526 -0.099375986 -0.23165546 -0.16377114 -0.054006945 -0.612332 0.47899932 0.03383312 0.11669614 -0.17304176 0.1017076 -0.31193417 -0.15656395 0.29837015 -0.04229269 -0.19183369 -0.12022728 0.16171199 0.10375886 -0.069396384 -0.113553815 -0.15635875 -0.002442533 0.0066588214 -0.4392884 -0.027164465 0.037263293 0.26639545 -0.26661542 0.05495376 0.03033216 -0.15180719 -0.052121803 -0.10005293 -0.023626836 0.09970219 -0.03430375 0.22955173 0.14245543 0.07278169 -0.074765146 0.008248251 0.14719564 0.05787711 0.0155094825 0.18975863 -0.24317613 0.13169067 -0.23666994 0.08991106 -0.14183618 -0.10783352 0.19529642 -0.09389117 0.22543666 -0.21379831 -0.065936856 0.3541305 -0.23891549 0.109761335 0.200003 0.668036 -0.08113807 0.026967132 0.100412555 -0.012770241 -0.08118233 0.15574841 0.10234852 -0.06732361 -0.27522817 0.25931394 0.21196857 -0.024020523 0.14987254 -0.0797614 -0.112621486 0.0238309 0.17120676 -0.093006596 -0.08602937 -0.15412249 0.12388821 -0.061487135 -0.005423913 -0.30099827 -0.30511355 -0.24461056 0.012452797 -0.13508958 0.011444554 -0.060693838 0.16515818 0.06664854 0.41620725 0.026256902 0.100303516 -0.11115424 -0.18443128 -0.10601935 0.037172828 -0.08852705 0.27267298 -0.093272485 0.17664601 0.11751856 0.17205778 0.12136934 -0.0688239 0.15897033 -0.1598067 -0.28348255 0.052360762 -0.05707375 -0.046194635 -0.0027206782 -0.08540093 0.07724039 -0.13651852 -0.12170202 -0.28228247 0.40611845 -0.10828897 0.03554725 -0.34018743 0.06807358 0.17201886 -0.17706533 0.18488018 -0.22712055 0.032148495 0.10435288 0.13641173 -0.014621442 -0.11221452 0.46814162 0.030929105 0.16647416 -0.16821267 0.12290876 0.29929528 0.065946564 0.101983964 -0.19139007 0.07979278 -0.12548615 0.19667023 0.41102108 -0.05018367 -0.27989078 0.15993875 0.18534648 0.22100967 0.31383955 -0.099652186 -0.040485147 0.22251531 0.2235008 -0.20873907 0.05782162 -0.38052723 -0.10395344 0.037557196 -0.047628913 -0.10117846 -0.14567144 0.43203682 0.16464876 -0.23806229 0.046794206 -0.26931375 -0.009261867 -0.13219199 0.21654911 -0.34378734 0.04695386 -0.15586132 -0.03140893 0.21619247 0.23560451 -0.38175115 -0.025182905 0.14914899 -0.1856135 -0.12747836 0.377376 0.08717442 -0.5337941 0.10880886 -0.00020300309 -0.06585366 -0.21317592 0.31866723 0.003349889 -0.037534963 -0.112289004 -0.026673447 0.2098157 0.013073914 -0.16575634 0.09282679 -0.1228579 0.030815547 0.3046258 -0.08215616 -0.013239914 0.22750391 0.061734334 0.5204212 0.026974974 -0.089826114 -0.07162159 0.055866364 -0.27270174 0.1428613 0.094265416 -0.111852005 0.03329933 0.17037356 -0.034237977 -0.014735536 0.197824 -0.09410407 -0.08907037 -0.07699454 -0.059384763 -0.015021687 0.10542027 -0.12123089 0.39129153 -0.37351844 0.2603349 -0.0336798 -0.018139875 -0.21018957 -0.36083078 0.16995609 0.0011110984 -0.09608249 -0.03785392 -0.009120423 -0.047934625 -0.13414319 0.11893071 0.23119085 -0.066575445 0.21378548 0.060331795 -0.012943958 0.021518573 -0.1560038 -0.259681 0.1712963 0.13977386 0.019752089 -0.035957236 -0.02143714 -0.1279786 0.2164489 0.09238725 -0.103772245 0.23560289 0.16411114 -0.058954827 -0.026981626 -0.24422114 0.07195341 0.080952436 0.052579995 0.007420901 0.3102886 0.2616063 0.024801083 0.17192018 0.14851241 -0.00485145 -0.100755446 0.32251298 0.023171768 -0.08200098 0.2777073 -0.14158207 0.10368777 0.18113218 -0.21402718 0.10696735 -0.053066283 -0.26785454 0.11019321 -0.12420748 0.39424887 0.032116264 0.11637857 -0.048048135 -0.004919886 -0.033740085 -0.017854685 -0.0060062213 -0.046624202 0.08666195 0.012605395 0.22018477 0.10867076 -0.13749123 -0.15072328 -0.2097535 0.0017854334 -0.33150843 -0.017164683 0.11831818 -0.04290438 0.038989205 -0.2727784 -0.14034928 0.0571571 0.09765919 0.119564176 0.19150275 -0.0059978324 0.085047424 -0.058349814 0.46970722 -0.1939814 0.16275515 0.00927661 -0.030110117 -0.23407426 -0.121186376 0.102662064 0.16435371 0.13833886 0.3120993 0.02374128 0.055387825 -0.05552642 -0.17241685 -0.16818473 0.24291028 0.044139907 0.23430158 0.16493665 0.03282608 -0.11868402 -0.17964774 -0.041323345 -0.13545635 0.019440748 0.2322517 -0.093644485 0.03544546 -0.046618283 -0.2790615 -0.07256218 -0.06890964 -0.026507627 0.0015530349 -0.17189743 -0.5064371 0.048910376 -0.22577935 -0.2878146 0.014374412 -0.07778969 0.33264163 0.01711612 -0.13228233 0.18771347 0.14950795 -0.111376084 0.14027432 -0.059042506 -0.13374104 -0.14254715 0.01803494 -0.23571807 0.30777517 0.36755398 0.0021537673 -0.028065674 -0.20473526 0.2979182 0.031569146 0.039846834 -0.044494037 -0.065143056 0.08346512 -0.025869003 -0.034814578 -0.052861735 0.4722026 0.06559164 0.05118832 0.049986552 0.20798172 -0.14828877 -0.08277782 0.025922269 0.05446366 -0.12731321 0.07296219 0.05352867 -0.28789338 -0.4861986 0.350867 -0.062052846 0.18533598 0.045613106 -0.029390847 0.2567547 -0.22954255 -0.17991284 -0.08364545 0.23829997 0.1682808 0.16234633 0.027172215 0.05725705 0.022946926 0.027223058 -0.09909247 0.07345307 0.20775157 0.09076118 0.14404571 0.07220934 0.22553714 0.13358134 0.015679404 -0.08213265 0.025203062 -0.026962908 0.07200572 0.103322096 -0.23098914 -0.21572202 -0.09616512 0.047554374 0.049468603 0.1945969 0.20803086 -0.09571793 0.061616473 0.09273278 0.15709288 -0.03769052 -0.043697767 0.095336124 -0.05231329 -0.18336895 -0.273506 -0.0721762 0.06402441 -0.28923312 0.041167006 -0.07959485 -0.11658175 0.128261 -0.12661725
算 0.077914864 0.28136152 -0.32592946 -0.14865255 -0.28671885 -0.1443456 -0.30023977 0.43706134 0.003959511 -0.22362363 0.056921516 -0.46623033 -0.12643217 -0.12150445 0.33216855 -0.04538811 -0.062235087 0.047252323 -0.08865981 -0.020173522 0.073040955 0.25171006 -0.4648477 0.12790142 -0.107437566 0.4129922 -0.23884451 0.08025128 0.049596254 0.28215307 0.21031703 0.26553375 0.108913444 -0.103222124 0.11513559 -0.051695015 0.041437652 0.3061774 0.383279 -0.19057809 -0.075417876 -0.31700802 -0.63952637 -0.0724494 0.35765046 -0.08044253 -0.21052988 0.30177167 -0.057915013 -0.14956398 -0.13080087 0.059538484 0.09128214 -0.14325878 0.031688266 0.10675988 -0.118693404 -0.16776344 -0.061209314 -0.09270021 0.1391345 -0.1745402 -0.110111915 -0.08523356 -0.42865553 -0.027630676 -0.10739624 0.000923453 -0.13334164 0.24471487 -0.1377813 0.041440904 0.021372972 0.08363795 -0.42556548 0.029553965 0.06628536 -0.33702558 -0.12727861 -0.075267576 -0.16900304 -0.09016666 -0.5056038 -0.01567278 0.14111194 0.007278568 0.078538746 -0.29017118 0.13685152 0.33692366 -0.3617103 0.12752119 -0.1580979 -0.07856262 0.063302234 0.24949631 0.09818058 0.043840326 0.07192398 0.22348315 0.11155022 -0.23124039 -0.39039928 0.32120657 0.013454604 -0.1396057 -0.06521777 0.04773402 0.10734094 -0.10152308 -0.15227215 0.6754282 -0.22461876 -0.6341998 0.13770528 0.42225882 0.08338691 0.21434727 0.027357446 -0.5144297 -0.32630894 -0.61871403 -0.12092366 -0.28661248 -0.018331608 0.05791631 0.22923869 -0.2536256 -0.07972657 0.076767124 0.06650077 0.3497193 -0.24031927 0.045614563 0.20570181 -0.21876614 -0.11401841 -0.13667415 0.17562854 -0.063985094 -0.26276603 0.28413293 -0.03314147 0.009200034 0.11471438 0.17667846 0.19722003 0.15963665 0.19352813 -0.22877157 0.19767351 -0.2393566 0.111473724 0.11264135 0.11467988 -0.1458713 0.036073934 0.04357328 -0.2856662 0.12101103 0.102493726 -0.15376967 -0.12710978 0.46866134 -0.26825336 -0.23793106 -0.10857182 -0.07052767 -0.37126836 0.007845579 -0.07666821 -0.25699812 -0.16904283 -0.13732915 0.16579048 -0.1731039 0.14562304 0.2222821 0.03532778 -0.01916713 -0.19523357 -0.0037391628 0.12130132 0.1675518 0.03812994 0.053367034 0.319895 -0.20424134 -0.23614725 -0.096172735 -0.019491935 0.19233546 0.1774071 -0.07141799 0.28528705 -0.13906707 0.11598172 -0.29291794 -0.2013882 -0.05198863 -0.19715574 0.15604872 -0.12483458 -0.008733631 0.07306951 -0.017556973 0.117485926 0.08051868 0.20273694 -0.29817536 -0.3247891 -0.11500563 -0.038624886 0.2893684 -0.25010303 -0.60563236 0.0318138 0.30301568 -0.1633014 -0.035802186 -0.12756597 0.23686107 -0.31351432 -0.18174566 -0.010641933 0.08822835 0.07437322 -0.12747662 0.04985798 -0.14728147 -0.13848239 0.20722778 0.1594072 -0.07629895 0.059198163 -0.21586983 0.17289948 -0.24552183 -0.15914594 -0.060251333 0.007137148 -0.17814201 -0.025321465 0.24626504 -0.22908454 0.25085607 -0.09626009 -0.0088948915 -0.04363286 0.043928884 -0.21497135 -0.08442565 -0.25372395 0.07952908 0.4016902 0.22764295 0.27208817 0.12522341 0.13221012 0.10477042 -0.20544837 0.19580302 0.24843109 0.06538804 -0.2284816 -0.3308482 -0.00058192917 -0.08473829 0.1105052 0.33871824 0.08484808 -0.36237395 0.39790204 0.20794211 0.17046872 -0.3494385 0.37543574 -0.13118786 0.3984915 -0.2502745 0.056543544 -0.39523068 0.16487488 -0.14122295 0.09760577 -0.05710974 -0.15255737 -0.1431149 0.03947475 0.13064103 0.304197 -0.07507019 0.14526281 0.23573005 0.0038754125 -0.16026232 -0.16161624 -0.019146444 0.13175802 0.09530534 0.101312086 0.19518904 -0.018096467 0.015097816 0.030633751 0.31468287 -0.11928342 -0.074379906 -0.5465822 0.20214154 -0.16428536 -0.08369442 0.4783373 0.07441274 -0.19174194 -0.03596409 0.029197458 0.09297691 0.07146772 0.18701471 0.08753698 -0.0009057958 0.2481799 -0.16005678 0.326428 -0.11297431 0.10165252 0.066783495 0.04177599 -0.15352555 -0.29258853 -0.041268427 -0.12506367 -0.3626793 -0.056603234 -0.10694871 0.2411757 -0.03443254 0.03129903 -0.32809225 -0.076392844 -0.060151424 -0.19343926 0.1417149 -0.1642651 0.16479026 -0.24204195 -0.22445081 -0.11023735 0.0654962 0.07026709 -0.15832983 0.042225707 0.096884474 0.25734785 -0.31343463 -0.46900108 -0.10580043 -0.29776734 0.24243332 0.04375842 -0.36484388 -0.2477527 0.31180194 -0.12727147 -0.26517344 -0.26261714 0.036824554 -0.15005352 0.09348152 0.16667472 0.013067343 0.024049463 0.022747805 0.2649936 -0.035335414 -0.13877921 0.39885354 -0.19231981 0.15653855 -0.20545527 -0.111662894 -0.3185893 0.164703 -0.014559626 0.19810879 0.17419721 -0.1756385 0.3296387 0.10318552 0.38735923 -0.35947752 0.040023122 0.14684452 -0.22288036 0.20514418 -0.088486135 -0.34553957 -0.13506654 -0.017320493 0.02981202 0.2172751 -0.1229722 -0.13798891 -0.023902552 0.059085302 0.1420254 -0.049490005 -0.15375651 -0.053131264 0.10280104 0.24193469 0.029776474 0.07747801 0.30000088 -0.0028621096 0.09413814 0.09180006 -0.01628448 -0.04529452 0.33086994 0.12450107 -0.14265095 0.026587201 0.13334538 0.15946035 0.056909494 -0.32890338 0.18340717 0.10239907 0.110396504 0.49322036 -0.08380426 0.13485298 0.029096808 -0.16814965 -0.12195103 -0.12731045 -0.37421435 -0.13807191 -0.025772138 0.30260918 -0.20856193 0.1593455 0.05582837 0.09473268 -0.28611696 -0.07851423 0.014453862 0.0635266 0.045369092 -0.017025856 0.0319766 -0.060577013 0.1719646 -0.064569764 -0.3593843 0.00061329437 -0.14536211 -0.27926978 -0.355054 -0.16289131 0.17102362 0.15111054 0.20456824 0.028027328 0.32274866 -0.07516204 -0.038939845 0.1278262 -0.17697924 -0.12522039 0.08658323 0.53961617 0.32987767 0.32387513 -0.1475519 0.11057228 -0.25456434 -0.42056367 -0.020329807 -0.026661798 0.022068243 0.11611491 -0.2736543 0.2754311 -0.13385025 -0.063676015 -0.046342243 -0.08377286 -0.21721672 0.11145538 -0.25436017 -0.2676546 -0.12379284 0.024217024 0.093151376 0.036705647 0.22445342 -0.14683823 0.62663764 -0.21128836 0.17658214 0.13616471 -0.1671657 0.37850356 0.15479611 -0.043232758 -0.2172627 -0.31747392 -0.060135946 0.1619665 -0.21983388 -0.11840901 0.023955967 -0.14294198 -0.17051537 -0.053007532 0.35362366 -0.040031217 -0.027602904 0.23827842 -0.01032947 0.09952936 0.070707105 0.026095474 0.12596221 -0.05251241 -0.21085685 0.23696926 -0.23219496 0.015351681 0.31032145 0.21557155 -0.0478928 0.60073024 -0.041908517 -0.13336149 0.12493467 0.06995165 0.0007324816 -0.16484033 -0.1694313 -0.15383427 -0.13531226 -0.028793555 0.19888398 0.348005 -0.2864767 0.07482586 0.6074283 0.39675924 -0.28632048 0.03229457 0.016073165 0.04883263 0.25937945 0.15369041 0.10360913 -0.05880519 -0.49489373 0.03668257 0.03768777 0.1253373 -0.50889164 -0.1460957 0.11670057 -0.14438692 0.26108247 0.22512665 -0.20202799 -0.41224778 -0.059346344 -0.19673261 -0.02712209 0.23421249 0.20238075 -0.11573854 0.14120018 0.23580179 0.14340478 0.05821687 -0.19500846 -0.056372818 0.10470926 -0.10529112 -0.12470777 -0.026993956 -0.5895222 -0.20913237 -0.1944842 0.0182132 0.39899594 -0.08492128 0.016853742 0.041639432 -0.19740638 0.0011512756 -0.12457159 -0.045192584 0.18010262 0.19338638 -0.03849052 -0.14920193 0.30141237 -0.033822726 0.0054454342 0.055791635 0.3379553 0.3373404 0.0076284856 0.0113763595 -0.08149348 0.084613584 -0.26630363 0.14890386 -0.035399757 -0.13640626 0.22698155 0.055574078 0.013853146 -0.032898158 -0.07647737 0.012354207 0.25077522 -0.18523274 0.06901941 0.22393788 -0.09163363 0.3029684 0.30804515 -0.08668643 0.14517917 0.17223433 -0.04582065 -0.3415115 0.024579853 0.18114544 0.04593997 0.04686216 0.10187569 -0.26620948 0.05225296 -0.095451 0.14536242 0.11466609 0.14806308 0.12609085 -0.075467296 0.09911638 -0.16730297 0.39937627 0.09474817 0.053181563 0.04920858 0.06717881 0.7267247 -0.10490297 0.28474265 -0.23533544 -0.101966634 0.61684185 0.39816618 0.04945197 -0.06331394 -0.085452385 0.075922556 -0.2511947 -0.009324335 -0.010395104 -0.20445862 0.01423817 0.35748613 -0.07107055 0.12013374 0.3317834 -0.114427485 0.29107407 0.44938606 -0.17022607 -0.08795176 -0.13440314 0.050115444 0.41893908 -0.03674509 0.047295388 0.08754241 -0.06312292 0.17777234 -0.22814979 -0.4432674 -0.059622075 -0.38546285 0.120368116 0.10010489 0.36776108 -0.15597577 0.07944688 -0.048718754 0.14367647 0.1222499 -0.11519834 0.06403654 0.13261233 0.35696468 -0.3060275 -0.015691627 -0.12621915 0.13433498 0.15062536 0.17425588 0.043321207 -0.130845 -0.5143176 0.041821707 0.3083336 -0.058141287 0.20311674 -0.16983928 -0.25974235 -0.057566084 -0.24222791 -0.18313804 0.029886775 -0.09372722 -0.14227499 0.17133674 0.11282637 -0.00732459 0.051834244 0.042918168 0.24493152 0.0051309275 0.16807577 -0.104044855 -0.18040773 0.2004741 -0.20988318 0.044970125 0.10904735 -0.10738018 -0.029439991 -0.1467747 -0.3081199 -0.24664412 0.09534501 0.27242506 -0.09420649 -0.03036864 -0.29090992 0.05291212 -0.008321998 -0.5953083 -0.030681526 0.24426562 -0.07694425 0.015104777 0.117226765 0.07204403 0.089155145 -0.20220137 0.27815357 -0.11005521 0.07353385 -0.26760828 -0.2160469 0.17790157 -0.23338436
化 0.005890143 -0.5256075 -0.019786222 -0.009384679 0.025398092 -0.21100289 -0.07653545 -0.06789689 0.04815328 -0.2350896 0.09904383 -0.055136435 -0.09115822 -0.0154518755 0.2602823 -0.013636256 0.11492712 -0.046602555 -0.26212636 0.23571713 0.046473183 0.4097295 0.14052767 -0.10616773 0.04977498 -0.1450937 0.17860785 -0.104629 -0.43506345 -0.06201202 0.010509589 -0.08724143 0.109831996 -0.16797416 -0.011141736 0.13794927 -0.6914663 0.075797305 -0.11496105 -0.084156446 0.44296223 0.4549331 -0.10047462 -0.06333592 0.046679616 -0.0729074 -0.13850136 0.025434775 0.24568413 0.4836483 0.110773966 0.22342142 0.014651584 -0.25811377 -0.106224835 0.048547395 0.7029643 -0.122331955 0.018540293 0.26515168 0.0041573425 0.21801746 0.010555846 0.06472836 -0.35331106 0.13184871 -0.16544183 -0.15523013 -0.046892934 -0.10699741 0.0011957812 -0.18450864 -0.0077913976 -0.055538412 -0.102185115 0.040462576 0.045761622 0.07277378 -0.16700286 -0.02762445 -0.14870457 -0.17217481 0.13140976 0.181365 0.055547375 0.11783256 0.249377 0.18013118 -0.19507216 0.23991519 -0.120595805 -0.20231259 -0.40397665 -0.056723986 0.12403856 -0.17121531 -0.06128877 -0.15274097 0.011066152 0.026885536 -0.14699526 0.24748155 0.22307518 -0.12298517 -0.004626547 0.12699948 0.20730485 0.11441666 -0.2450982 -0.026851092 -0.035709385 -0.0021688314 0.03002996 -0.12516412 -0.4595756 0.103642195 0.06046377 -0.47322378 0.051491544 0.018216033 0.011202382 -0.020556765 -0.05941914 -0.24020644 0.013184217 0.050311096 -0.1363354 -0.19795017 -0.10447712 -0.0724152 0.083244674 -0.11122693 0.10521235 0.07429391 -0.023970861 -0.051012803 0.2710073 -0.14875232 0.15718073 0.07017376 -0.19427502 0.09648237 0.095817685 0.015908353 -0.26797783 0.09955695 -0.18311775 -0.1751338 0.044633973 0.13323112 0.11249336 0.00023575805 -0.26719427 -0.0013845183 -0.09979141 0.05467069 0.015090594 0.039452434 0.028192379 -0.14530244 0.1535204 -0.13678716 -0.09775744 -0.056862008 -0.090002805 -0.20870282 0.31677908 0.21055837 0.09443866 0.30704105 -0.02960687 -0.34859085 -0.10097937 -0.004834584 -0.13266772 0.15886761 0.0607631 0.011557893 0.033772863 -0.055780128 0.036181163 0.27427337 -0.0032158478 0.108706154 0.069242276 0.1274531 0.116595246 -0.17968535 -0.018907446 -0.08509879 0.009901242 -0.15048124 -0.2559632 -0.08249835 -0.03624442 -0.009460287 0.21594757 -0.14372256 0.32814443 0.007692738 0.14305064 -0.2882723 -0.010144522 0.15309227 -0.32644337 -0.2798437 -0.015903804 -0.0788022 0.40091348 0.14565013 0.057096906 0.09229821 0.119443625 -0.100730516 0.25425857 -0.14279097 -0.13170898 -0.029258199 -0.0033697153 -0.020085335 -0.029489709 0.07464182 0.059623647 -0.12704945 -0.0783242 -0.014244725 0.23773691 0.059513494 0.043025505 -0.17792645 0.06749836 0.16975595 0.14706784 0.14550592 0.3364782 0.011687483 -0.2519319 0.018634174 0.058450367 0.06390026 -0.38150582 0.023522435 -0.13937877 -0.07948827 -0.09095047 -0.11951531 0.1132359 -0.070871 -0.032207277 0.019994654 0.13126443 0.19483025 0.13654198 -0.20643641 -0.1512335 -0.13036314 0.10242667 0.18191844 -0.0848441 0.27574518 -0.24113248 -0.11584391 0.11201231 0.015215551 -0.2007977 0.15886825 -0.108786955 0.29956374 0.10758477 0.09150869 0.066221595 0.08490336 0.15335412 0.36227125 0.2969909 -0.10353233 -0.18632543 0.029332971 0.0077331034 0.083768636 0.089495964 -0.2469133 -0.056905095 0.08109017 -0.12634051 -0.0147433 0.22796702 0.060309738 -0.13158251 -0.16072883 -0.031232925 -0.10297309 -0.06629188 0.06292865 -0.20861134 0.18887484 -0.06780283 -0.035367396 -0.055611666 0.21309102 -0.2784269 0.03507513 -0.07905049 -0.04888006 0.012565139 -0.15076348 -0.19598861 0.14727788 -0.022118663 -0.03190284 0.13315378 -0.091530636 0.102201335 0.2784217 -0.11933222 0.17500135 -0.24798004 0.11793613 0.13378961 -0.064439446 0.15854794 -0.117514715 -0.003932218 0.06142024 0.01861188 -0.05155539 0.0308665 0.40492794 0.15478495 0.015477395 -0.14193016 -0.0027473557 0.08738998 -0.18250895 0.009375796 0.07559191 -0.03146722 -0.08554998 0.036114622 -0.18698503 0.348535 0.2932137 0.27587205 -0.11593769 -0.06486855 -0.14643939 0.06487855 0.09009306 0.37317872 0.04612159 -0.40167913 -0.08256388 0.022887405 -0.007930479 0.118711114 -0.034496076 0.01755776 0.19960989 -0.20451353 0.063921005 0.15417634 0.13809913 -0.0565102 0.14370364 0.120479114 -0.14420998 0.17709804 -0.16051602 -0.5272822 0.05546409 -0.031436376 -0.06581286 0.06407696 -0.03401139 -0.30269644 0.051573087 -0.13596565 -0.14061469 -0.03475164 0.07701688 -0.16888754 0.16541074 0.006373503 0.35508284 -0.22663505 0.018257445 0.14896686 0.16538411 0.577207 -0.084338434 0.07740115 0.05300724 0.24203055 0.17594463 -0.07516922 -0.09103828 -0.06386761 -0.00030736084 -0.020229867 0.052194364 -0.2249978 0.026421411 -0.27443928 0.1956531 -0.18542083 0.10955413 -0.008607398 -0.047976386 -0.04314896 0.14268824 -0.039929233 -0.0013585459 -0.04835837 -0.22883911 -0.18541674 0.11072775 0.22044727 0.13230534 -0.050283305 0.23529455 0.14350948 0.17543434 -0.13771768 -0.07597404 -0.09169762 0.16134149 0.046350613 0.058789644 -0.051708188 -0.2712158 0.09895691 -0.31515414 0.012087954 -0.114414945 -0.13495938 -0.01562205 -0.13805833 0.040998027 0.12957002 0.25710917 0.23890765 0.10314975 -0.23838207 -0.15727654 0.061360292 -0.05723721 0.06425528 -0.11855151 0.07854342 -0.46896246 0.055795494 -0.03423056 0.23833187 -0.031722326 0.12307588 0.0027198659 0.3048954 0.058764625 -0.24579084 0.11501929 -0.3935537 0.2344626 0.026498383 0.09071813 -0.07392122 -0.0050735064 -0.091357104 -0.09696381 -0.047529753 0.18504925 -0.024630573 -0.1745479 0.12000209 -0.14701237 0.4191444 0.24351741 -0.07034325 0.19215977 -0.25610572 0.14321713 -0.17933929 0.4071822 -0.031202756 0.16136955 -0.2682343 0.025534673 0.03652015 0.0010639386 -0.08137302 -0.055820342 -0.19914888 0.05336262 -0.18769981 0.07030738 0.1313482 0.03084596 0.12787876 0.11309408 -0.046982422 -0.1407612 -0.15518366 0.007844099 -0.03589284 -0.2816499 -0.15810408 0.13177745 0.17349762 -0.39120862 -0.069377825 0.25751495 0.0988269 -0.073204294 0.034238055 0.2540456 0.08032052 -0.15280798 0.025564274 0.13688119 -0.092637144 -0.0997744 0.1012762 -0.009763781 0.10653424 0.011230324 -0.09481163 0.2137364 0.38170415 -0.15952212 0.06003653 0.3070715 -0.27272496 -0.13786565 -0.18950546 0.19827046 -0.06353609 -0.19883285 -0.042494267 -0.09137034 -0.122109145 -0.10131259 -0.15927908 -0.14338893 -0.09982524 0.0422738 0.3288827 0.064980015 -0.12224463 -0.08876179 0.12395993 0.20247592 0.02615809 0.044171125 0.19457233 0.19173326 0.28548536 -0.38223553 -0.0144239105 0.0022076638 0.006414582 -0.093468025 -0.19388647 -0.07736988 -0.008693404 -0.13098244 0.009216196 0.055111315 0.13497673 0.5073671 0.06472275 0.080087855 0.016491318 -0.111566834 -0.07745481 -0.03930687 -0.1809231 -0.19553335 0.0032529775 0.027558438 0.1495031 0.09727533 0.09915912 0.15329088 -0.008339335 0.1248509 -0.07624134 -0.033570442 -0.010550931 0.62294996 -0.3755638 0.036936887 -0.049352344 -0.11387947 -0.0049700183 0.049482893 0.04773538 0.6368082 -0.23669393 -0.02289235 -0.18173815 -0.06501038 0.08986439 -0.0010934843 0.057524927 0.023431612 0.09843175 -0.13427904 0.14332305 -0.11006708 -0.017283462 0.16881515 0.13924822 0.17034872 0.0044553014 0.037488375 0.11416716 0.019104853 0.2782618 0.2183607 -0.04955958 -0.019307336 -0.29420802 0.17886558 0.122232966 0.025973652 0.099297866 -0.08602692 -0.35527933 0.0652945 0.05573037 -0.16840184 0.24315664 0.051132698 -0.13316324 0.13294831 0.0143901445 -0.07934461 -0.26403672 0.050132923 0.17229626 0.15596272 -0.08147121 0.09482177 -0.19053549 -0.039396543 0.06683844 -0.035649832 0.07935042 -0.14418331 0.11986851 -0.147559 -0.019308265 -0.0017532434 -0.012443397 0.00812398 0.05409738 0.17584604 -0.2656318 0.21075167 0.13582198 0.04213473 0.11555961 -0.095034555 0.7458217 0.2827173 -0.20513809 0.12305902 0.16603288 -0.085977994 0.2455498 0.13760352 0.11389029 -0.21940193 -0.10904907 -0.014323162 -0.007750048 0.46534628 -0.06950178 0.13644531 0.17811754 0.050260276 0.099093996 -0.026055437 -0.031828415 -0.33423048 0.047201313 -0.11966763 0.16872868 0.013708962 -0.0022088927 0.07874955 0.041466456 0.19460143 -0.44153428 -0.13295692 0.13317902 0.030660955 -0.15479444 0.09155466 0.008530277 0.14865878 -0.28156176 0.03326804 -0.29158533 -0.11483247 -0.19661523 0.0035087296 0.20198815 -0.04531144 -0.034193974 -0.08216369 -0.20073934 0.102780916 -0.0799532 0.1566849 -0.01915732 -0.29462853 -0.15761037 0.39614266 0.0021186208 -0.25959685 -0.111973576 0.20226555 0.02494813 0.08823332 -0.10402901 -0.060843505 -0.0680114 -0.002174149 0.27518657 -0.13150427 -0.0077999244 -0.11983527 0.04923994 0.1584999 -0.027837606 -0.040147517 -0.010002026 -0.10412927 -0.1317942 0.3418365 -0.030351756 -0.22874928 0.30700547 0.065437086 -0.14206026 -0.10446145 0.355531 -0.4086731 0.19277604 -0.15237255 0.10961209 -0.151073 -0.0754626 0.060809363 -0.014539909 -0.06750969 0.15475371 0.02840365 0.09040176 0.28170377 0.11393078 -0.048088502 -0.09933406 -0.22042151 0.08434547 0.14387009 0.21667047 0.10571448
学 0.13363393 0.004876229 0.014569347 0.05957636 -0.0020108304 -0.10857094 0.046461828 0.038601246 -0.02437322 0.106024265 0.01715196 -0.0010665426 0.121071704 0.033722278 -0.03303174 0.15411629 -0.014008664 0.56438017 -0.040238924 0.0150831025 -0.015684526 -0.03396889 0.035020713 -0.016666006 -0.056190718 0.013907909 -0.032820657 0.1376648 -0.18128353 0.02156857 0.056577265 -0.053050485 0.029368965 0.06619766 -0.16653441 -0.12734726 -0.14882958 0.17364827 0.10215364 -0.013164243 0.092277996 0.0074008303 0.05347918 0.029540155 -0.076866046 0.010169297 -0.053694684 0.23843506 0.04994214 -0.017573826 0.06678703 -0.034645647 -0.06780823 0.018354598 0.18668576 0.025283312 0.0667358 0.021509942 -0.055299256 -0.0684648 0.21155618 0.030376848 -0.3522131 0.0749428 0.0621 -0.010612694 0.8047687 0.0713939 -0.06086114 -0.024716191 0.027801557 0.36817074 -0.02286687 0.0013408693 0.14073512 -0.05644143 0.036841583 -0.04335511 -0.04374382 0.009263031 -0.14579238 -0.18076374 0.021422412 -0.0053636376 0.038397316 0.19872367 -0.22613053 -0.10418081 0.19531061 0.041422937 0.04325125 -0.015746785 -0.014236549 0.11450932 -0.039128486 0.058410253 -0.06295384 -0.00037950024 -0.26011497 0.18540275 0.0073770657 -0.043400493 -0.0094708195 0.086064 -0.027368424 0.027144823 0.45894897 0.13903049 -0.17627516 0.083967716 0.08542791 -0.061443035 -0.03301283 0.009572705 -0.06475929 -0.015990477 -0.010515754 -0.16640417 0.14687505 0.020447342 0.07483175 1.012326 -0.0022281795 -0.08774208 -0.022027625 0.06401989 0.12537088 -0.045373082 -0.041013006 0.028443573 -0.18522316 0.08461194 -0.1311626 -0.11965065 0.12886105 0.094955966 -0.005322698 -0.0016149111 -0.042922534 -0.026610456 0.12623385 0.025524056 0.16049781 0.0365131 -0.008441609 0.02746877 0.002379897 -0.11601557 -0.02733364 0.028051887 0.10900828 -0.10413422 -0.24162586 0.05020618 0.0721402 0.08810394 -0.09231103 -0.017267782 -0.008832569 -0.009467907 0.10889495 -0.046087082 0.05585918 -0.10873029 0.0037963882 0.1244096 -0.01925651 -0.31104416 0.09351438 -0.014797001 0.008088143 0.010550392 0.021522375 0.066480294 0.04257931 -0.033002604 0.26749545 0.79310524 -0.0021322884 0.057403874 0.013617706 0.046684127 0.03074388 0.06878043 -1.634419 -0.03170369 -0.019226925 -0.024342319 0.1293143 -0.09846451 0.037386745 -0.13542691 0.1793972 0.04837365 -0.07277716 0.09453028 0.013875637 -0.07873227 0.14192224 0.015836662 0.054511122 -0.038822923 0.08379594 -0.1374875 -0.01202937 -0.17067474 -0.04220121 -0.037541423 0.15952672 0.040069338 -0.0060266918 0.09540885 0.03941518 0.005715722 0.10825068 -0.15070757 0.048651017 0.09356122 -0.00022300649 0.039576612 -0.65893793 0.02736458 -0.0043615205 0.036884863 -0.008531296 -0.072380334 0.050675277 -0.058754973 0.06801637 0.077857316 -0.0006681596 -0.049489297 0.02553047 -0.0113073 -0.15234023 0.006340976 0.06323323 -0.0036695253 0.052946053 -0.021446917 0.055173215 0.0028940064 -0.086490236 0.06061258 0.07629806 0.03604363 0.16549908 0.0057555116 -0.07768424 0.061693687 0.004013106 -0.04832965 0.04345681 -0.14009784 0.009928286 -0.03132225 -0.061827753 0.115427375 0.008392285 -0.042041067 0.084538236 -0.7019057 0.031220239 -0.085041575 0.04507269 0.0340802 -0.05139027 0.39251533 -0.04740304 -0.0035290618 0.083354995 0.10110271 0.012873024 -0.20952944 -0.07873506 -0.044700153 -0.023715664 0.06349464 0.010532867 -0.06244985 0.035682697 -0.07821258 0.0107036885 0.04872813 -0.17424488 -0.014714957 -0.041990146 0.17939557 0.045494936 -0.057865836 0.15854305 -0.07202254 0.04309129 0.057602264 0.11756631 -0.06368452 0.022530498 -0.0016980941 0.035748623 -0.0063471827 0.044630792 -0.039031025 -0.030608926 0.04715981 -0.07867439 0.0288341 0.045609295 0.18765305 -0.0115712015 -0.107240684 0.07320276 -0.08251992 -0.068609625 0.100859776 0.02580832 -0.052775994 -0.14814085 0.2953745 0.11856354 0.026610214 -0.034001518 -0.0075907256 0.073225304 0.08846067 0.009764189 0.020905156 -0.023939144 0.10098146 -0.08842943 0.10662906 -0.16765326 0.05644684 0.032995135 -0.07210051 0.12356038 -0.15256931 0.037834864 -0.09885011 0.031054955 -0.02244378 0.08335246 -0.092722245 -0.058961425 0.07526457 0.055754803 -0.07912132 -0.012953599 0.075385705 -0.060741585 0.07589054 -0.09824041 0.23434675 0.004021994 -0.07547548 -0.1661545 -0.035242606 0.040054917 0.08333931 -0.012222938 0.08746138 0.092139244 -0.06968784 -0.025307866 0.028473094 -0.039612215 -0.058870424 0.06389617 -0.06567241 -0.6634591 -0.028309721 -0.11180709 0.15202351 0.017447483 0.17362483 -0.3028157 -0.14447142 0.03257278 -0.031021496 0.055373047 0.07002104 0.06236091 -0.07672094 -0.074345715 -0.083804406 -0.09223589 -0.07590826 -0.030723358 0.17116758 -0.03830032 -0.10889042 0.025579244 -0.0749517 0.021255465 -0.013605033 0.02056313 -0.13863236 -0.30026132 0.043100756 -0.19723174 -0.036278892 -0.054719366 0.13696323 -0.20782673 -0.22030154 -0.14466223 -0.027496805 -0.15453102 -0.008586803 -0.0683892 0.02170557 0.052166436 -0.00404361 -0.05390927 -0.10129952 -0.041971147 0.009638313 0.0155294435 0.04220846 0.021919489 -0.13313699 -0.014401663 -0.039599925 -0.09931956 0.077918574 0.29987764 0.055340953 0.008432309 -0.11423348 -0.0011233761 0.08851075 -0.0009532547 0.02281677 -0.013859255 -0.12182109 -0.26102048 -0.04387452 0.19937146 -0.019026667 0.051529262 0.028597578 -0.14694034 0.081287265 -0.033265423 -0.10853166 -0.1282613 0.11952664 -0.047890387 -0.056213003 0.03813457 -0.06801239 0.10486367 -0.0038612278 0.017608142 -0.30561247 0.13350725 0.07836029 -0.08494433 -0.12874809 -0.032277603 0.484201 -0.019655226 -0.07907721 -0.20072365 -0.031848885 -0.05551018 -0.09851363 0.06432323 0.18778384 -0.00020920942 -0.005697665 0.015841471 0.13473617 -0.062402807 0.20376027 0.117202155 0.013620445 0.6153346 -0.03888963 0.004844016 -0.10700814 -0.011564412 0.0101952655 0.018899763 -0.10245472 -0.007188588 0.031412743 0.043416627 -0.14840382 -0.080366045 0.061678838 -0.046096295 -0.22812276 -0.01844821 -0.0053250478 0.04055869 0.18646084 -0.0005206 -0.074948564 0.7270477 -0.10063896 0.21778621 -0.18167719 0.03567778 0.10960722 -0.045877866 -0.05873492 0.14267486 -0.13510004 0.16146037 -0.07212314 0.017034533 -0.0065968772 -0.10007041 -0.013285862 0.055483125 -0.15472771 -0.01330967 0.11313691 0.05476145 -0.024348222 -0.07017452 -0.060616102 0.00783295 0.09110602 -0.021564323 -0.08893071 -0.09681483 0.12518583 -0.06372866 -0.019789178 -0.11922116 -0.0012259946 0.013932177 -0.13032208 -0.5143926 0.15049371 -0.044794105 -0.04025832 -0.004489218 0.066632725 -0.16211426 -0.013566436 -0.07551583 0.037398603 0.06066949 -0.25233293 0.037364744 0.070964575 0.0631334 0.046895653 -0.009092993 0.06125583 -0.11894976 0.3325006 -0.12446517 0.18254533 0.06420053 0.039560106 -0.044483647 -0.060993195 0.06282741 -0.061513357 -0.11636512 0.01520338 -0.0664318 0.009088379 0.07165059 -0.17858648 -0.02864697 0.02829422 -0.0427255 0.06363395 -0.1694879 -0.0017047393 -0.09083722 -0.23592763 0.039991733 -0.06682871 0.023989355 -0.14648843 1.2783004 0.086769715 -0.07422925 0.07188384 0.07008252 -0.07397711 0.009102625 0.030237578 -0.12078372 0.053636897 0.15491596 0.053758573 0.013172495 0.021315616 -0.03760028 1.033455 0.010199748 -0.029376496 0.20831247 -0.0049953843 0.027728038 0.057060875 -0.08812546 -0.084968194 -0.21409117 -0.04834533 0.033932995 -0.034534123 -0.07049193 0.07288846 0.2595909 0.038934518 -0.048111096 -0.066075526 -0.090090625 0.29752776 -0.021900637 -0.631189 0.047482025 0.0014000543 -0.035225317 -0.0030961414 -0.12847562 -0.034419455 -0.0040865857 -0.66076225 -0.023542551 -0.050784472 0.024883632 -0.08433197 0.07675356 -0.03179102 -0.17910184 0.2342946 0.050229955 0.049464807 -0.16439071 -0.11861275 0.0674712 0.11240172 0.0024192359 0.081256635 -0.31307203 0.057281572 -0.1823245 -0.014815594 -0.055197243 -0.062484767 0.026008712 0.019503493 -0.0674855 0.0014910471 0.013720388 0.031936143 -0.034259833 -0.066895366 -0.037254408 -0.005694703 0.04136959 0.26984024 -0.17308405 -0.35990348 0.060400236 0.032932624 -0.010847097 -0.008442706 0.041826956 -0.056762025 -0.069875345 0.11009074 -0.16455811 -0.14919324 0.03205023 0.019355418 -0.03237009 -0.0015514618 -0.06892312 -0.23561235 0.08579226 0.040541794 -0.07567704 -0.039968487 -0.20577759 -0.06934257 -0.0751974 0.026288342 -0.40837395 -0.09592473 -0.11751716 -0.100305565 0.1320789 -0.0474143 -0.0024790901 0.06601842 0.043224163 -0.05072629 0.01808151 0.06813784 -0.02293387 0.06775296 0.029009663 -0.020012109 0.09541421 -0.058160856 0.04303377 -0.14393792 -0.0130867325 0.56134474 0.1489192 0.013361188 -0.006261781 -0.011027375 -0.04696599 0.19060779 0.019304823 -0.06499094 -0.058963023 0.03915079 0.02507993 -0.27272648 -0.03401342 -0.041582443 -0.058686607 -0.04858903 -0.039413173 0.027944677 -0.0048009586 -0.04217294 -0.17525406 -0.0107231075 -0.090162195 -0.069115385 0.021688897 0.033555843 0.014627655 0.006224923 0.02190047 -0.0042569763 -0.06371094 -0.015953813 0.10834508 0.0750889 -0.35456702 -0.11088656 -0.18412395 -0.06598186 -0.0744977 -0.000745591 0.0066185864 0.74056786 -0.025393775 -0.07464613 -0.11739005 -0.070243366 -0.06151974 -0.033656526 0.2168627 0.450227 -0.02697989 -0.08566585 -0.06945518 0.033988908 -0.10900709 0.087957196 -0.036007516 -0.040131647 -0.072719455 -0.15433744
的 -0.035330717 -0.004637685 0.0132878395 -0.04259368 0.060711924 -0.00733229 0.009564066 0.046213668 -0.35271004 -0.015102887 -0.013632817 0.04702442 0.017458513 0.007325036 0.059693452 -0.07878119 0.024596158 -0.14230528 0.018720387 0.06505644 -0.041077875 -0.0858968 -0.018583156 -0.026539236 -0.026548423 -0.040334158 -0.0053238566 -0.0033072296 0.02594906 0.022457147 0.009614681 0.0038699252 0.005350497 -0.0323947 0.077344485 -0.025465682 -0.052944697 0.025415363 0.07777126 -0.08097656 -0.016548812 -0.04653249 -0.09261631 -0.049046315 -0.028835585 -8.1330196e-05 -0.042662486 0.043474443 -0.6895333 -0.04196683 0.060245335 -0.0065086014 0.054510698 -0.02436604 0.0019396993 -0.031552415 0.008604612 0.02118065 0.036520433 1.2271241 -0.04310117 0.06446116 -0.08163439 -0.04084624 -0.013897495 -0.028261848 -0.0016137098 0.003133566 -0.12480029 0.01521162 0.047704082 -0.07470093 -0.0008622115 0.0077660913 0.06533016 -0.035675235 -0.21423121 0.09550049 0.024770241 -0.098743334 -0.06006564 0.051663816 0.007987755 -0.039903343 -0.042192884 0.019666178 -0.03563245 0.013078888 -0.03348934 -0.054068528 -0.033237517 -0.07661288 -0.015522319 -0.031903967 -0.08618353 -0.7047736 -0.013767486 -0.03852645 0.044274334 -0.008795049 -0.06608466 -0.015857164 -0.025058525 0.03062098 -0.83153826 0.041589838 -0.051809356 -0.043355517 -0.004897309 -0.055593975 -0.025273059 -0.039921176 0.007889825 -0.010290289 -0.027342794 -0.10519753 -0.007836485 -0.084505595 -0.3647479 0.035658255 -0.03917576 -0.0027419354 0.05606889 0.031073153 0.051514734 -0.021229096 -0.032674592 0.007712007 0.023456665 -1.2157589 0.09962736 0.062206138 0.035857838 0.009080532 0.032415383 0.021741575 -0.08135693 -0.01246973 0.04023519 -0.010736009 0.030056046 0.044391084 -0.005872817 0.016119393 0.031421788 0.0022461421 -0.07181566 -0.0007391972 0.04105311 0.047085885 0.052440215 0.024554668 0.044986457 -0.05701956 0.02355848 -0.054498795 0.036675874 0.04767065 -0.051474832 0.018185157 -0.023849431 -0.048462376 -0.02636133 -0.0069377385 -0.0014908833 -0.04814726 0.093139306 0.009787484 -0.00080218806 -0.003994072 0.9236738 -0.05236106 -0.009256086 -0.037909843 0.0029261033 -0.036701594 -0.052500892 0.027821193 -0.03879757 -0.050790902 -0.030209718 -0.015761916 -0.04290298 0.027236229 0.025702076 0.0069588516 -0.07872287 0.023365492 -0.01624371 0.01366267 -0.031267628 -0.0051572206 0.031969458 -0.062560126 -0.07023619 -0.008277262 0.038114887 0.024550598 -0.0013787195 -0.00748153 -0.013400611 0.02061182 -0.04305726 0.0008366786 -0.010967776 -0.032990526 0.048709713 -0.0074949577 -0.032446228 0.03358713 -0.011670038 -0.042952433 0.07517228 0.06006266 0.04014681 0.0024301223 -0.039781295 -0.033107616 -0.082962215 0.030353734 -0.14431803 0.028670752 0.004695645 -0.08029709 -0.033023193 0.021289155 -0.014971823 0.016678432 -0.034683432 -0.048470348 -0.021045407 -0.058342975 -0.02446204 -0.063412555 0.038862724 0.013592352 0.005974866 -0.008428772 0.012417118 -0.06638736 0.0054798056 0.03168046 0.08265289 0.042199854 -0.051257133 -0.07608156 -0.072642714 -0.02130343 0.0046067657 -0.049712166 -0.040408935 0.047048688 0.09594379 0.029462414 0.0046518594 -0.054474305 0.032509796 0.05231157 0.005815067 0.02516498 -0.009375754 0.056333404 0.018826181 -0.03286487 -0.124982476 -0.06588769 -1.2144016 -0.0007076004 0.025532532 -0.0078020417 -0.042350803 0.005963322 0.025902769 0.023679309 0.051228877 0.016291745 -0.07773717 0.030729344 0.0023783427 -0.021162206 0.08111872 -0.05665907 -0.05749425 0.0708716 0.055634882 -0.020057641 0.023073575 0.006282869 -0.012433475 0.042668562 -0.059017956 -0.094795376 -0.033503063 0.014572173 -0.0049737403 -0.0012204177 0.050497755 0.07927684 -0.07175498 0.0305043 0.004655605 0.017129911 0.08038456 0.013368344 0.049562376 -0.016469538 0.067596324 0.020195441 0.005619136 -0.011171365 0.053763922 -0.020096498 0.11742976 0.11148618 0.014137708 -0.014480886 0.016538776 0.015130019 -0.052181117 -0.033401392 0.00337632 -0.037773404 -0.018230742 -0.010866852 -0.0058903224 -0.06625416 0.03728099 0.0054945834 0.011606416 0.0027605372 -0.015362534 -0.013775498 -0.020071892 -0.056066856 0.026170593 -0.0062459516 0.0360503 -0.05389111 0.02403699 -0.009456262 -0.0034766179 0.035282608 0.055725828 0.030386174 0.0513952 -0.036060385 0.014943551 -0.027585616 -0.042300638 0.050587114 0.016876161 0.019763434 -0.037097484 -0.07539049 -0.05360315 -0.011289365 0.1058162 -0.022307616 -0.030223053 0.020071628 0.028291207 -0.032939736 -0.0076993704 0.033991884 -0.0009376477 -0.01991197 -0.008523637 0.014757622 0.0018604626 0.008222424 -0.023908585 0.020566117 -0.012072337 -0.028142665 0.0011119968 -0.0131148305 -1.1919478 -0.0022827764 0.03059443 0.05288147 0.24137442 -0.041393086 -0.060712937 0.020452613 0.11094138 0.0035072165 -0.008233556 -0.01937142 -0.05094336 -0.043772317 -0.011630235 0.014247076 -0.0055396226 0.02750223 -0.0022944484 -0.036566347 0.01637496 0.019384027 0.0362685 0.79046965 -0.012032458 0.020703891 -0.018499348 -0.108798325 0.017819162 1.117402 0.018935405 -0.008506294 0.05146219 -0.022542756 -0.013348258 0.037625194 -0.002183383 -0.055542737 -0.048824046 0.042146295 0.021739958 0.06475658 -0.06604615 0.039043307 0.06762564 0.05385637 0.024125896 -0.099123515 -0.019608354 -0.07871193 -0.10585793 -0.01496668 -0.0031835625 0.79272455 0.03169654 0.035831805 0.00614894 -0.04752144 -0.05633637 0.0065386537 0.033898544 -0.040769804 0.02922097 -0.017867716 -0.0071166735 0.0059000687 0.015847046 0.04604317 0.023467073 0.045426466 -0.004339925 0.062280152 0.012456581 -0.00245506 -0.08754734 0.6516092 -0.04101744 0.014930251 -0.0039129993 -0.013605556 0.07438608 0.089815006 -0.043325145 -0.0640794 0.117501825 0.04753769 -0.01763007 0.0041087875 0.018320553 -0.0010519929 0.06644248 -0.021813484 -0.022572627 -0.01351872 -0.03867471 -0.010980313 0.5408021 -0.004633106 0.03263599 -0.004379893 0.07701407 -0.01715864 0.04829194 -0.0013467184 -0.050561845 -0.046013877 -0.031656135 0.03340958 0.016088987 0.023928484 -0.027203267 0.032133065 -0.011883262 -0.016373752 -0.056018397 -0.026833303 -0.049153984 -0.0023550238 0.03162463 0.010728862 0.08673296 0.01647956 -0.040268432 0.013890414 0.0204854 -0.022434223 -0.0050251624 0.0023487979 -0.0060533197 -0.07458172 -0.12159184 0.0533492 0.010999068 -0.22604302 -0.016200237 -0.01598141 0.014404695 0.040170867 -0.009114277 0.0012087239 -0.053446647 0.03653557 0.056348473 -0.018812804 0.16078238 0.0036444762 -0.76676905 -0.032012966 -0.03868881 0.013095108 0.0011048166 0.025410164 0.0022462218 -0.09604816 0.022455992 -0.009277036 0.024872996 -0.023638416 0.0066374065 0.045379408 0.019489285 0.08577772 0.007743293 -0.028688388 0.013610678 1.1468525 0.037694145 0.03860692 0.0036040363 0.036393385 -0.007860625 0.03507842 -0.050593868 -0.31831488 0.022293473 0.029061053 0.04754478 0.01164197 0.08457141 -0.04780379 -0.07994163 0.054642234 -0.00084432994 0.03646486 -0.031895176 -0.05735596 -0.021017218 -0.015362074 0.051974237 0.07366144 0.0106325615 -0.91166854 -0.030131001 0.036728207 0.033280645 0.017470026 -0.069908656 -0.046824325 0.023006603 0.07100842 -0.030926883 0.0056629274 0.00586686 -0.028016582 -0.0045026643 0.15804146 -0.0056820214 -0.16392641 0.008590584 1.0821592 0.30858594 -0.005206501 -0.047129642 0.02435733 -0.050007094 0.046033815 0.024544725 0.025657307 0.0101613635 -0.033344533 -0.054058157 -0.023680946 -0.0033151638 -0.053625684 0.015560476 0.0132211475 0.056103904 0.029803695 0.0015583242 -0.0030236626 0.022299165 0.039667457 0.02504857 0.07100722 -0.035263617 -0.01979744 -0.021978216 -0.09192089 -0.035480443 -0.07339325 0.031224396 -0.0019871208 -0.20591483 -0.05924621 0.047353838 -0.030084841 0.055319555 0.10030163 0.0054603536 0.004113845 -0.013313527 -0.07976273 0.03221821 0.032842036 0.030726682 0.0563001 -0.041212484 -0.0012322183 0.011549627 0.015602501 0.032044962 0.028317511 -0.015507815 -0.037325546 -0.022241218 0.037727565 -0.03755458 -0.013933984 0.012209982 -0.027154373 0.030809982 0.026379196 0.003859565 -0.04439864 0.023962779 0.02067718 0.07010108 -0.0077133845 -0.004647339 -0.057103492 0.0053464333 -0.07294895 0.0015234814 -0.020083964 0.008694769 0.0103644 0.52829266 0.051071305 0.023254981 0.016376592 0.06423824 0.013192559 -0.019816274 -0.011457243 -0.017695848 -0.010661129 -0.024314133 0.05085271 -0.7673013 -0.05160327 -0.036084037 -0.05538687 0.04897733 -0.04355188 0.020701412 -0.03378475 0.021876596 0.018783055 0.015955541 0.007949123 0.016026774 0.002934379 0.031604912 0.0111905495 -0.03978757 0.039800182 0.028023556 -0.008450965 -0.029708423 -0.0041124546 0.19427802 -0.03259844 -0.029759433 -0.012090794 -0.015363294 0.00225389 0.009075606 -0.00066049665 -0.027236259 -0.014990606 0.023219861 0.11633807 0.028760199 0.0076600956 0.039552204 -0.030396711 -0.02735347 -0.056996703 0.65494365 -0.0041266875 -0.044249564 0.064964406 0.014522044 0.052702155 0.028927961 -0.030752314 0.00956667 0.081858665 -0.049954243 0.00040637254 0.043265756 0.032397337 0.02169256 -0.03842941 -0.04730423 -0.0014541077 -0.049725447 0.057279304 -0.056959182 0.040121857 0.0028885584 -0.030122697 -0.09750847 -0.034249667 -0.08716516 -0.06909677 0.023671934 0.009593659 -0.020150334 -0.0055831796 0.037731655 -0.02793721 0.022389326 -0.025083713 -0.085125215 -0.004686611 0.008399301 -0.06582845 0.004426239 0.109659635 -0.002792055 -0.033863783 0.0080253 -0.030125571 0.0019859406 0.037362322 0.06847523 -0.055174142 0.074337274 -0.61028725 -0.07215811 0.058261305
